<?xml version="1.0"?>
<opencv_storage>
<opencv_ml_rtrees>
  <format>3</format>
  <is_classifier>1</is_classifier>
  <var_all>1768</var_all>
  <var_count>1767</var_count>
  <ord_var_count>1767</ord_var_count>
  <cat_var_count>1</cat_var_count>
  <training_params>
    <use_surrogates>0</use_surrogates>
    <max_categories>10</max_categories>
    <regression_accuracy>0.</regression_accuracy>
    <max_depth>10</max_depth>
    <min_sample_count>2</min_sample_count>
    <cross_validation_folds>0</cross_validation_folds>
    <nactive_vars>4</nactive_vars></training_params>
  <global_var_idx>1</global_var_idx>
  <var_idx>
    0 1 2 3 4 5 6 7 8 9 10 11 12 13 14 15 16 17 18 19 20 21 22 23 24 25
    26 27 28 29 30 31 32 33 34 35 36 37 38 39 40 41 42 43 44 45 46 47 48
    49 50 51 52 53 54 55 56 57 58 59 60 61 62 63 64 65 66 67 68 69 70 71
    72 73 74 75 76 77 78 79 80 81 82 83 84 85 86 87 88 89 90 91 92 93 94
    95 96 97 98 99 100 101 102 103 104 105 106 107 108 109 110 111 112
    113 114 115 116 117 118 119 120 121 122 123 124 125 126 127 128 129
    130 131 132 133 134 135 136 137 138 139 140 141 142 143 144 145 146
    147 148 149 150 151 152 153 154 155 156 157 158 159 160 161 162 163
    164 165 166 167 168 169 170 171 172 173 174 175 176 177 178 179 180
    181 182 183 184 185 186 187 188 189 190 191 192 193 194 195 196 197
    198 199 200 201 202 203 204 205 206 207 208 209 210 211 212 213 214
    215 216 217 218 219 220 221 222 223 224 225 226 227 228 229 230 231
    232 233 234 235 236 237 238 239 240 241 242 243 244 245 246 247 248
    249 250 251 252 253 254 255 256 257 258 259 260 261 262 263 264 265
    266 267 268 269 270 271 272 273 274 275 276 277 278 279 280 281 282
    283 284 285 286 287 288 289 290 291 292 293 294 295 296 297 298 299
    300 301 302 303 304 305 306 307 308 309 310 311 312 313 314 315 316
    317 318 319 320 321 322 323 324 325 326 327 328 329 330 331 332 333
    334 335 336 337 338 339 340 341 342 343 344 345 346 347 348 349 350
    351 352 353 354 355 356 357 358 359 360 361 362 363 364 365 366 367
    368 369 370 371 372 373 374 375 376 377 378 379 380 381 382 383 384
    385 386 387 388 389 390 391 392 393 394 395 396 397 398 399 400 401
    402 403 404 405 406 407 408 409 410 411 412 413 414 415 416 417 418
    419 420 421 422 423 424 425 426 427 428 429 430 431 432 433 434 435
    436 437 438 439 440 441 442 443 444 445 446 447 448 449 450 451 452
    453 454 455 456 457 458 459 460 461 462 463 464 465 466 467 468 469
    470 471 472 473 474 475 476 477 478 479 480 481 482 483 484 485 486
    487 488 489 490 491 492 493 494 495 496 497 498 499 500 501 502 503
    504 505 506 507 508 509 510 511 512 513 514 515 516 517 518 519 520
    521 522 523 524 525 526 527 528 529 530 531 532 533 534 535 536 537
    538 539 540 541 542 543 544 545 546 547 548 549 550 551 552 553 554
    555 556 557 558 559 560 561 562 563 564 565 566 567 568 569 570 571
    572 573 574 575 576 577 578 579 580 581 582 583 584 585 586 587 588
    589 590 591 592 593 594 595 596 597 598 599 600 601 602 603 604 605
    606 607 608 609 610 611 612 613 614 615 616 617 618 619 620 621 622
    623 624 625 626 627 628 629 630 631 632 633 634 635 636 637 638 639
    640 641 642 643 644 645 646 647 648 649 650 651 652 653 654 655 656
    657 658 659 660 661 662 663 664 665 666 667 668 669 670 671 672 673
    674 675 676 677 678 679 680 681 682 683 684 685 686 687 688 689 690
    691 692 693 694 695 696 697 698 699 700 701 702 703 704 705 706 707
    708 709 710 711 712 713 714 715 716 717 718 719 720 721 722 723 724
    725 726 727 728 729 730 731 732 733 734 735 736 737 738 739 740 741
    742 743 744 745 746 747 748 749 750 751 752 753 754 755 756 757 758
    759 760 761 762 763 764 765 766 767 768 769 770 771 772 773 774 775
    776 777 778 779 780 781 782 783 784 785 786 787 788 789 790 791 792
    793 794 795 796 797 798 799 800 801 802 803 804 805 806 807 808 809
    810 811 812 813 814 815 816 817 818 819 820 821 822 823 824 825 826
    827 828 829 830 831 832 833 834 835 836 837 838 839 840 841 842 843
    844 845 846 847 848 849 850 851 852 853 854 855 856 857 858 859 860
    861 862 863 864 865 866 867 868 869 870 871 872 873 874 875 876 877
    878 879 880 881 882 883 884 885 886 887 888 889 890 891 892 893 894
    895 896 897 898 899 900 901 902 903 904 905 906 907 908 909 910 911
    912 913 914 915 916 917 918 919 920 921 922 923 924 925 926 927 928
    929 930 931 932 933 934 935 936 937 938 939 940 941 942 943 944 945
    946 947 948 949 950 951 952 953 954 955 956 957 958 959 960 961 962
    963 964 965 966 967 968 969 970 971 972 973 974 975 976 977 978 979
    980 981 982 983 984 985 986 987 988 989 990 991 992 993 994 995 996
    997 998 999 1000 1001 1002 1003 1004 1005 1006 1007 1008 1009 1010
    1011 1012 1013 1014 1015 1016 1017 1018 1019 1020 1021 1022 1023
    1024 1025 1026 1027 1028 1029 1030 1031 1032 1033 1034 1035 1036
    1037 1038 1039 1040 1041 1042 1043 1044 1045 1046 1047 1048 1049
    1050 1051 1052 1053 1054 1055 1056 1057 1058 1059 1060 1061 1062
    1063 1064 1065 1066 1067 1068 1069 1070 1071 1072 1073 1074 1075
    1076 1077 1078 1079 1080 1081 1082 1083 1084 1085 1086 1087 1088
    1089 1090 1091 1092 1093 1094 1095 1096 1097 1098 1099 1100 1101
    1102 1103 1104 1105 1106 1107 1108 1109 1110 1111 1112 1113 1114
    1115 1116 1117 1118 1119 1120 1121 1122 1123 1124 1125 1126 1127
    1128 1129 1130 1131 1132 1133 1134 1135 1136 1137 1138 1139 1140
    1141 1142 1143 1144 1145 1146 1147 1148 1149 1150 1151 1152 1153
    1154 1155 1156 1157 1158 1159 1160 1161 1162 1163 1164 1165 1166
    1167 1168 1169 1170 1171 1172 1173 1174 1175 1176 1177 1178 1179
    1180 1181 1182 1183 1184 1185 1186 1187 1188 1189 1190 1191 1192
    1193 1194 1195 1196 1197 1198 1199 1200 1201 1202 1203 1204 1205
    1206 1207 1208 1209 1210 1211 1212 1213 1214 1215 1216 1217 1218
    1219 1220 1221 1222 1223 1224 1225 1226 1227 1228 1229 1230 1231
    1232 1233 1234 1235 1236 1237 1238 1239 1240 1241 1242 1243 1244
    1245 1246 1247 1248 1249 1250 1251 1252 1253 1254 1255 1256 1257
    1258 1259 1260 1261 1262 1263 1264 1265 1266 1267 1268 1269 1270
    1271 1272 1273 1274 1275 1276 1277 1278 1279 1280 1281 1282 1283
    1284 1285 1286 1287 1288 1289 1290 1291 1292 1293 1294 1295 1296
    1297 1298 1299 1300 1301 1302 1303 1304 1305 1306 1307 1308 1309
    1310 1311 1312 1313 1314 1315 1316 1317 1318 1319 1320 1321 1322
    1323 1324 1325 1326 1327 1328 1329 1330 1331 1332 1333 1334 1335
    1336 1337 1338 1339 1340 1341 1342 1343 1344 1345 1346 1347 1348
    1349 1350 1351 1352 1353 1354 1355 1356 1357 1358 1359 1360 1361
    1362 1363 1364 1365 1366 1367 1368 1369 1370 1371 1372 1373 1374
    1375 1376 1377 1378 1379 1380 1381 1382 1383 1384 1385 1386 1387
    1388 1389 1390 1391 1392 1393 1394 1395 1396 1397 1398 1399 1400
    1401 1402 1403 1404 1405 1406 1407 1408 1409 1410 1411 1412 1413
    1414 1415 1416 1417 1418 1419 1420 1421 1422 1423 1424 1425 1426
    1427 1428 1429 1430 1431 1432 1433 1434 1435 1436 1437 1438 1439
    1440 1441 1442 1443 1444 1445 1446 1447 1448 1449 1450 1451 1452
    1453 1454 1455 1456 1457 1458 1459 1460 1461 1462 1463 1464 1465
    1466 1467 1468 1469 1470 1471 1472 1473 1474 1475 1476 1477 1478
    1479 1480 1481 1482 1483 1484 1485 1486 1487 1488 1489 1490 1491
    1492 1493 1494 1495 1496 1497 1498 1499 1500 1501 1502 1503 1504
    1505 1506 1507 1508 1509 1510 1511 1512 1513 1514 1515 1516 1517
    1518 1519 1520 1521 1522 1523 1524 1525 1526 1527 1528 1529 1530
    1531 1532 1533 1534 1535 1536 1537 1538 1539 1540 1541 1542 1543
    1544 1545 1546 1547 1548 1549 1550 1551 1552 1553 1554 1555 1556
    1557 1558 1559 1560 1561 1562 1563 1564 1565 1566 1567 1568 1569
    1570 1571 1572 1573 1574 1575 1576 1577 1578 1579 1580 1581 1582
    1583 1584 1585 1586 1587 1588 1589 1590 1591 1592 1593 1594 1595
    1596 1597 1598 1599 1600 1601 1602 1603 1604 1605 1606 1607 1608
    1609 1610 1611 1612 1613 1614 1615 1616 1617 1618 1619 1620 1621
    1622 1623 1624 1625 1626 1627 1628 1629 1630 1631 1632 1633 1634
    1635 1636 1637 1638 1639 1640 1641 1642 1643 1644 1645 1646 1647
    1648 1649 1650 1651 1652 1653 1654 1655 1656 1657 1658 1659 1660
    1661 1662 1663 1664 1665 1666 1667 1668 1669 1670 1671 1672 1673
    1674 1675 1676 1677 1678 1679 1680 1681 1682 1683 1684 1685 1686
    1687 1688 1689 1690 1691 1692 1693 1694 1695 1696 1697 1698 1699
    1700 1701 1702 1703 1704 1705 1706 1707 1708 1709 1710 1711 1712
    1713 1714 1715 1716 1717 1718 1719 1720 1721 1722 1723 1724 1725
    1726 1727 1728 1729 1730 1731 1732 1733 1734 1735 1736 1737 1738
    1739 1740 1741 1742 1743 1744 1745 1746 1747 1748 1749 1750 1751
    1752 1753 1754 1755 1756 1757 1758 1759 1760 1761 1762 1763 1764
    1765 1766</var_idx>
  <var_type>
    0 0 0 0 0 0 0 0 0 0 0 0 0 0 0 0 0 0 0 0 0 0 0 0 0 0 0 0 0 0 0 0 0 0
    0 0 0 0 0 0 0 0 0 0 0 0 0 0 0 0 0 0 0 0 0 0 0 0 0 0 0 0 0 0 0 0 0 0
    0 0 0 0 0 0 0 0 0 0 0 0 0 0 0 0 0 0 0 0 0 0 0 0 0 0 0 0 0 0 0 0 0 0
    0 0 0 0 0 0 0 0 0 0 0 0 0 0 0 0 0 0 0 0 0 0 0 0 0 0 0 0 0 0 0 0 0 0
    0 0 0 0 0 0 0 0 0 0 0 0 0 0 0 0 0 0 0 0 0 0 0 0 0 0 0 0 0 0 0 0 0 0
    0 0 0 0 0 0 0 0 0 0 0 0 0 0 0 0 0 0 0 0 0 0 0 0 0 0 0 0 0 0 0 0 0 0
    0 0 0 0 0 0 0 0 0 0 0 0 0 0 0 0 0 0 0 0 0 0 0 0 0 0 0 0 0 0 0 0 0 0
    0 0 0 0 0 0 0 0 0 0 0 0 0 0 0 0 0 0 0 0 0 0 0 0 0 0 0 0 0 0 0 0 0 0
    0 0 0 0 0 0 0 0 0 0 0 0 0 0 0 0 0 0 0 0 0 0 0 0 0 0 0 0 0 0 0 0 0 0
    0 0 0 0 0 0 0 0 0 0 0 0 0 0 0 0 0 0 0 0 0 0 0 0 0 0 0 0 0 0 0 0 0 0
    0 0 0 0 0 0 0 0 0 0 0 0 0 0 0 0 0 0 0 0 0 0 0 0 0 0 0 0 0 0 0 0 0 0
    0 0 0 0 0 0 0 0 0 0 0 0 0 0 0 0 0 0 0 0 0 0 0 0 0 0 0 0 0 0 0 0 0 0
    0 0 0 0 0 0 0 0 0 0 0 0 0 0 0 0 0 0 0 0 0 0 0 0 0 0 0 0 0 0 0 0 0 0
    0 0 0 0 0 0 0 0 0 0 0 0 0 0 0 0 0 0 0 0 0 0 0 0 0 0 0 0 0 0 0 0 0 0
    0 0 0 0 0 0 0 0 0 0 0 0 0 0 0 0 0 0 0 0 0 0 0 0 0 0 0 0 0 0 0 0 0 0
    0 0 0 0 0 0 0 0 0 0 0 0 0 0 0 0 0 0 0 0 0 0 0 0 0 0 0 0 0 0 0 0 0 0
    0 0 0 0 0 0 0 0 0 0 0 0 0 0 0 0 0 0 0 0 0 0 0 0 0 0 0 0 0 0 0 0 0 0
    0 0 0 0 0 0 0 0 0 0 0 0 0 0 0 0 0 0 0 0 0 0 0 0 0 0 0 0 0 0 0 0 0 0
    0 0 0 0 0 0 0 0 0 0 0 0 0 0 0 0 0 0 0 0 0 0 0 0 0 0 0 0 0 0 0 0 0 0
    0 0 0 0 0 0 0 0 0 0 0 0 0 0 0 0 0 0 0 0 0 0 0 0 0 0 0 0 0 0 0 0 0 0
    0 0 0 0 0 0 0 0 0 0 0 0 0 0 0 0 0 0 0 0 0 0 0 0 0 0 0 0 0 0 0 0 0 0
    0 0 0 0 0 0 0 0 0 0 0 0 0 0 0 0 0 0 0 0 0 0 0 0 0 0 0 0 0 0 0 0 0 0
    0 0 0 0 0 0 0 0 0 0 0 0 0 0 0 0 0 0 0 0 0 0 0 0 0 0 0 0 0 0 0 0 0 0
    0 0 0 0 0 0 0 0 0 0 0 0 0 0 0 0 0 0 0 0 0 0 0 0 0 0 0 0 0 0 0 0 0 0
    0 0 0 0 0 0 0 0 0 0 0 0 0 0 0 0 0 0 0 0 0 0 0 0 0 0 0 0 0 0 0 0 0 0
    0 0 0 0 0 0 0 0 0 0 0 0 0 0 0 0 0 0 0 0 0 0 0 0 0 0 0 0 0 0 0 0 0 0
    0 0 0 0 0 0 0 0 0 0 0 0 0 0 0 0 0 0 0 0 0 0 0 0 0 0 0 0 0 0 0 0 0 0
    0 0 0 0 0 0 0 0 0 0 0 0 0 0 0 0 0 0 0 0 0 0 0 0 0 0 0 0 0 0 0 0 0 0
    0 0 0 0 0 0 0 0 0 0 0 0 0 0 0 0 0 0 0 0 0 0 0 0 0 0 0 0 0 0 0 0 0 0
    0 0 0 0 0 0 0 0 0 0 0 0 0 0 0 0 0 0 0 0 0 0 0 0 0 0 0 0 0 0 0 0 0 0
    0 0 0 0 0 0 0 0 0 0 0 0 0 0 0 0 0 0 0 0 0 0 0 0 0 0 0 0 0 0 0 0 0 0
    0 0 0 0 0 0 0 0 0 0 0 0 0 0 0 0 0 0 0 0 0 0 0 0 0 0 0 0 0 0 0 0 0 0
    0 0 0 0 0 0 0 0 0 0 0 0 0 0 0 0 0 0 0 0 0 0 0 0 0 0 0 0 0 0 0 0 0 0
    0 0 0 0 0 0 0 0 0 0 0 0 0 0 0 0 0 0 0 0 0 0 0 0 0 0 0 0 0 0 0 0 0 0
    0 0 0 0 0 0 0 0 0 0 0 0 0 0 0 0 0 0 0 0 0 0 0 0 0 0 0 0 0 0 0 0 0 0
    0 0 0 0 0 0 0 0 0 0 0 0 0 0 0 0 0 0 0 0 0 0 0 0 0 0 0 0 0 0 0 0 0 0
    0 0 0 0 0 0 0 0 0 0 0 0 0 0 0 0 0 0 0 0 0 0 0 0 0 0 0 0 0 0 0 0 0 0
    0 0 0 0 0 0 0 0 0 0 0 0 0 0 0 0 0 0 0 0 0 0 0 0 0 0 0 0 0 0 0 0 0 0
    0 0 0 0 0 0 0 0 0 0 0 0 0 0 0 0 0 0 0 0 0 0 0 0 0 0 0 0 0 0 0 0 0 0
    0 0 0 0 0 0 0 0 0 0 0 0 0 0 0 0 0 0 0 0 0 0 0 0 0 0 0 0 0 0 0 0 0 0
    0 0 0 0 0 0 0 0 0 0 0 0 0 0 0 0 0 0 0 0 0 0 0 0 0 0 0 0 0 0 0 0 0 0
    0 0 0 0 0 0 0 0 0 0 0 0 0 0 0 0 0 0 0 0 0 0 0 0 0 0 0 0 0 0 0 0 0 0
    0 0 0 0 0 0 0 0 0 0 0 0 0 0 0 0 0 0 0 0 0 0 0 0 0 0 0 0 0 0 0 0 0 0
    0 0 0 0 0 0 0 0 0 0 0 0 0 0 0 0 0 0 0 0 0 0 0 0 0 0 0 0 0 0 0 0 0 0
    0 0 0 0 0 0 0 0 0 0 0 0 0 0 0 0 0 0 0 0 0 0 0 0 0 0 0 0 0 0 0 0 0 0
    0 0 0 0 0 0 0 0 0 0 0 0 0 0 0 0 0 0 0 0 0 0 0 0 0 0 0 0 0 0 0 0 0 0
    0 0 0 0 0 0 0 0 0 0 0 0 0 0 0 0 0 0 0 0 0 0 0 0 0 0 0 0 0 0 0 0 0 0
    0 0 0 0 0 0 0 0 0 0 0 0 0 0 0 0 0 0 0 0 0 0 0 0 0 0 0 0 0 0 0 0 0 0
    0 0 0 0 0 0 0 0 0 0 0 0 0 0 0 0 0 0 0 0 0 0 0 0 0 0 0 0 0 0 0 0 0 0
    0 0 0 0 0 0 0 0 0 0 0 0 0 0 0 0 0 0 0 0 0 0 0 0 0 0 0 0 0 0 0 0 0 0
    0 0 0 0 0 0 0 0 0 0 0 0 0 0 0 0 0 0 0 0 0 0 0 0 0 0 0 0 0 0 0 0 0 0
    0 0 0 0 0 0 0 0 0 0 0 0 0 0 0 0 0 0 0 0 0 0 0 0 0 0 0 0 0 0 0 0 0 1</var_type>
  <cat_ofs>
    0 0 0 0 0 0 0 0 0 0 0 0 0 0 0 0 0 0 0 0 0 0 0 0 0 0 0 0 0 0 0 0 0 0
    0 0 0 0 0 0 0 0 0 0 0 0 0 0 0 0 0 0 0 0 0 0 0 0 0 0 0 0 0 0 0 0 0 0
    0 0 0 0 0 0 0 0 0 0 0 0 0 0 0 0 0 0 0 0 0 0 0 0 0 0 0 0 0 0 0 0 0 0
    0 0 0 0 0 0 0 0 0 0 0 0 0 0 0 0 0 0 0 0 0 0 0 0 0 0 0 0 0 0 0 0 0 0
    0 0 0 0 0 0 0 0 0 0 0 0 0 0 0 0 0 0 0 0 0 0 0 0 0 0 0 0 0 0 0 0 0 0
    0 0 0 0 0 0 0 0 0 0 0 0 0 0 0 0 0 0 0 0 0 0 0 0 0 0 0 0 0 0 0 0 0 0
    0 0 0 0 0 0 0 0 0 0 0 0 0 0 0 0 0 0 0 0 0 0 0 0 0 0 0 0 0 0 0 0 0 0
    0 0 0 0 0 0 0 0 0 0 0 0 0 0 0 0 0 0 0 0 0 0 0 0 0 0 0 0 0 0 0 0 0 0
    0 0 0 0 0 0 0 0 0 0 0 0 0 0 0 0 0 0 0 0 0 0 0 0 0 0 0 0 0 0 0 0 0 0
    0 0 0 0 0 0 0 0 0 0 0 0 0 0 0 0 0 0 0 0 0 0 0 0 0 0 0 0 0 0 0 0 0 0
    0 0 0 0 0 0 0 0 0 0 0 0 0 0 0 0 0 0 0 0 0 0 0 0 0 0 0 0 0 0 0 0 0 0
    0 0 0 0 0 0 0 0 0 0 0 0 0 0 0 0 0 0 0 0 0 0 0 0 0 0 0 0 0 0 0 0 0 0
    0 0 0 0 0 0 0 0 0 0 0 0 0 0 0 0 0 0 0 0 0 0 0 0 0 0 0 0 0 0 0 0 0 0
    0 0 0 0 0 0 0 0 0 0 0 0 0 0 0 0 0 0 0 0 0 0 0 0 0 0 0 0 0 0 0 0 0 0
    0 0 0 0 0 0 0 0 0 0 0 0 0 0 0 0 0 0 0 0 0 0 0 0 0 0 0 0 0 0 0 0 0 0
    0 0 0 0 0 0 0 0 0 0 0 0 0 0 0 0 0 0 0 0 0 0 0 0 0 0 0 0 0 0 0 0 0 0
    0 0 0 0 0 0 0 0 0 0 0 0 0 0 0 0 0 0 0 0 0 0 0 0 0 0 0 0 0 0 0 0 0 0
    0 0 0 0 0 0 0 0 0 0 0 0 0 0 0 0 0 0 0 0 0 0 0 0 0 0 0 0 0 0 0 0 0 0
    0 0 0 0 0 0 0 0 0 0 0 0 0 0 0 0 0 0 0 0 0 0 0 0 0 0 0 0 0 0 0 0 0 0
    0 0 0 0 0 0 0 0 0 0 0 0 0 0 0 0 0 0 0 0 0 0 0 0 0 0 0 0 0 0 0 0 0 0
    0 0 0 0 0 0 0 0 0 0 0 0 0 0 0 0 0 0 0 0 0 0 0 0 0 0 0 0 0 0 0 0 0 0
    0 0 0 0 0 0 0 0 0 0 0 0 0 0 0 0 0 0 0 0 0 0 0 0 0 0 0 0 0 0 0 0 0 0
    0 0 0 0 0 0 0 0 0 0 0 0 0 0 0 0 0 0 0 0 0 0 0 0 0 0 0 0 0 0 0 0 0 0
    0 0 0 0 0 0 0 0 0 0 0 0 0 0 0 0 0 0 0 0 0 0 0 0 0 0 0 0 0 0 0 0 0 0
    0 0 0 0 0 0 0 0 0 0 0 0 0 0 0 0 0 0 0 0 0 0 0 0 0 0 0 0 0 0 0 0 0 0
    0 0 0 0 0 0 0 0 0 0 0 0 0 0 0 0 0 0 0 0 0 0 0 0 0 0 0 0 0 0 0 0 0 0
    0 0 0 0 0 0 0 0 0 0 0 0 0 0 0 0 0 0 0 0 0 0 0 0 0 0 0 0 0 0 0 0 0 0
    0 0 0 0 0 0 0 0 0 0 0 0 0 0 0 0 0 0 0 0 0 0 0 0 0 0 0 0 0 0 0 0 0 0
    0 0 0 0 0 0 0 0 0 0 0 0 0 0 0 0 0 0 0 0 0 0 0 0 0 0 0 0 0 0 0 0 0 0
    0 0 0 0 0 0 0 0 0 0 0 0 0 0 0 0 0 0 0 0 0 0 0 0 0 0 0 0 0 0 0 0 0 0
    0 0 0 0 0 0 0 0 0 0 0 0 0 0 0 0 0 0 0 0 0 0 0 0 0 0 0 0 0 0 0 0 0 0
    0 0 0 0 0 0 0 0 0 0 0 0 0 0 0 0 0 0 0 0 0 0 0 0 0 0 0 0 0 0 0 0 0 0
    0 0 0 0 0 0 0 0 0 0 0 0 0 0 0 0 0 0 0 0 0 0 0 0 0 0 0 0 0 0 0 0 0 0
    0 0 0 0 0 0 0 0 0 0 0 0 0 0 0 0 0 0 0 0 0 0 0 0 0 0 0 0 0 0 0 0 0 0
    0 0 0 0 0 0 0 0 0 0 0 0 0 0 0 0 0 0 0 0 0 0 0 0 0 0 0 0 0 0 0 0 0 0
    0 0 0 0 0 0 0 0 0 0 0 0 0 0 0 0 0 0 0 0 0 0 0 0 0 0 0 0 0 0 0 0 0 0
    0 0 0 0 0 0 0 0 0 0 0 0 0 0 0 0 0 0 0 0 0 0 0 0 0 0 0 0 0 0 0 0 0 0
    0 0 0 0 0 0 0 0 0 0 0 0 0 0 0 0 0 0 0 0 0 0 0 0 0 0 0 0 0 0 0 0 0 0
    0 0 0 0 0 0 0 0 0 0 0 0 0 0 0 0 0 0 0 0 0 0 0 0 0 0 0 0 0 0 0 0 0 0
    0 0 0 0 0 0 0 0 0 0 0 0 0 0 0 0 0 0 0 0 0 0 0 0 0 0 0 0 0 0 0 0 0 0
    0 0 0 0 0 0 0 0 0 0 0 0 0 0 0 0 0 0 0 0 0 0 0 0 0 0 0 0 0 0 0 0 0 0
    0 0 0 0 0 0 0 0 0 0 0 0 0 0 0 0 0 0 0 0 0 0 0 0 0 0 0 0 0 0 0 0 0 0
    0 0 0 0 0 0 0 0 0 0 0 0 0 0 0 0 0 0 0 0 0 0 0 0 0 0 0 0 0 0 0 0 0 0
    0 0 0 0 0 0 0 0 0 0 0 0 0 0 0 0 0 0 0 0 0 0 0 0 0 0 0 0 0 0 0 0 0 0
    0 0 0 0 0 0 0 0 0 0 0 0 0 0 0 0 0 0 0 0 0 0 0 0 0 0 0 0 0 0 0 0 0 0
    0 0 0 0 0 0 0 0 0 0 0 0 0 0 0 0 0 0 0 0 0 0 0 0 0 0 0 0 0 0 0 0 0 0
    0 0 0 0 0 0 0 0 0 0 0 0 0 0 0 0 0 0 0 0 0 0 0 0 0 0 0 0 0 0 0 0 0 0
    0 0 0 0 0 0 0 0 0 0 0 0 0 0 0 0 0 0 0 0 0 0 0 0 0 0 0 0 0 0 0 0 0 0
    0 0 0 0 0 0 0 0 0 0 0 0 0 0 0 0 0 0 0 0 0 0 0 0 0 0 0 0 0 0 0 0 0 0
    0 0 0 0 0 0 0 0 0 0 0 0 0 0 0 0 0 0 0 0 0 0 0 0 0 0 0 0 0 0 0 0 0 0
    0 0 0 0 0 0 0 0 0 0 0 0 0 0 0 0 0 0 0 0 0 0 0 0 0 0 0 0 0 0 0 0 0 0
    0 0 0 0 0 0 0 0 0 0 0 0 0 0 0 0 0 0 0 0 0 0 0 0 0 0 0 0 0 0 0 0 0 0
    0 0 0 0 0 0 0 0 0 0 0 0 0 0 0 0 0 0 0 0 0 0 0 0 0 0 0 0 0 0 0 0 0 0
    0 0 0 0 0 0 0 0 0 0 0 0 0 0 0 0 0 0 0 0 0 0 0 0 0 0 0 0 0 0 0 0 0 0
    0 0 0 0 0 0 0 0 0 0 0 0 0 0 0 0 0 0 0 0 0 0 0 0 0 0 0 0 0 0 0 0 0 0
    0 0 0 0 0 0 0 0 0 0 0 0 0 0 0 0 0 0 0 0 0 0 0 0 0 0 0 0 0 0 0 0 0 0
    0 0 0 0 0 0 0 0 0 0 0 0 0 0 0 0 0 0 0 0 0 0 0 0 0 0 0 0 0 0 0 0 0 0
    0 0 0 0 0 0 0 0 0 0 0 0 0 0 0 0 0 0 0 0 0 0 0 0 0 0 0 0 0 0 0 0 0 0
    0 0 0 0 0 0 0 0 0 0 0 0 0 0 0 0 0 0 0 0 0 0 0 0 0 0 0 0 0 0 0 0 0 0
    0 0 0 0 0 0 0 0 0 0 0 0 0 0 0 0 0 0 0 0 0 0 0 0 0 0 0 0 0 0 0 0 0 0
    0 0 0 0 0 0 0 0 0 0 0 0 0 0 0 0 0 0 0 0 0 0 0 0 0 0 0 0 0 0 0 0 0 0
    0 0 0 0 0 0 0 0 0 0 0 0 0 0 0 0 0 0 0 0 0 0 0 0 0 0 0 0 0 0 0 0 0 0
    0 0 0 0 0 0 0 0 0 0 0 0 0 0 0 0 0 0 0 0 0 0 0 0 0 0 0 0 0 0 0 0 0 0
    0 0 0 0 0 0 0 0 0 0 0 0 0 0 0 0 0 0 0 0 0 0 0 0 0 0 0 0 0 0 0 0 0 0
    0 0 0 0 0 0 0 0 0 0 0 0 0 0 0 0 0 0 0 0 0 0 0 0 0 0 0 0 0 0 0 0 0 0
    0 0 0 0 0 0 0 0 0 0 0 0 0 0 0 0 0 0 0 0 0 0 0 0 0 0 0 0 0 0 0 0 0 0
    0 0 0 0 0 0 0 0 0 0 0 0 0 0 0 0 0 0 0 0 0 0 0 0 0 0 0 0 0 0 0 0 0 0
    0 0 0 0 0 0 0 0 0 0 0 0 0 0 0 0 0 0 0 0 0 0 0 0 0 0 0 0 0 0 0 0 0 0
    0 0 0 0 0 0 0 0 0 0 0 0 0 0 0 0 0 0 0 0 0 0 0 0 0 0 0 0 0 0 0 0 0 0
    0 0 0 0 0 0 0 0 0 0 0 0 0 0 0 0 0 0 0 0 0 0 0 0 0 0 0 0 0 0 0 0 0 0
    0 0 0 0 0 0 0 0 0 0 0 0 0 0 0 0 0 0 0 0 0 0 0 0 0 0 0 0 0 0 0 0 0 0
    0 0 0 0 0 0 0 0 0 0 0 0 0 0 0 0 0 0 0 0 0 0 0 0 0 0 0 0 0 0 0 0 0 0
    0 0 0 0 0 0 0 0 0 0 0 0 0 0 0 0 0 0 0 0 0 0 0 0 0 0 0 0 0 0 0 0 0 0
    0 0 0 0 0 0 0 0 0 0 0 0 0 0 0 0 0 0 0 0 0 0 0 0 0 0 0 0 0 0 0 0 0 0
    0 0 0 0 0 0 0 0 0 0 0 0 0 0 0 0 0 0 0 0 0 0 0 0 0 0 0 0 0 0 0 0 0 0
    0 0 0 0 0 0 0 0 0 0 0 0 0 0 0 0 0 0 0 0 0 0 0 0 0 0 0 0 0 0 0 0 0 0
    0 0 0 0 0 0 0 0 0 0 0 0 0 0 0 0 0 0 0 0 0 0 0 0 0 0 0 0 0 0 0 0 0 0
    0 0 0 0 0 0 0 0 0 0 0 0 0 0 0 0 0 0 0 0 0 0 0 0 0 0 0 0 0 0 0 0 0 0
    0 0 0 0 0 0 0 0 0 0 0 0 0 0 0 0 0 0 0 0 0 0 0 0 0 0 0 0 0 0 0 0 0 0
    0 0 0 0 0 0 0 0 0 0 0 0 0 0 0 0 0 0 0 0 0 0 0 0 0 0 0 0 0 0 0 0 0 0
    0 0 0 0 0 0 0 0 0 0 0 0 0 0 0 0 0 0 0 0 0 0 0 0 0 0 0 0 0 0 0 0 0 0
    0 0 0 0 0 0 0 0 0 0 0 0 0 0 0 0 0 0 0 0 0 0 0 0 0 0 0 0 0 0 0 0 0 0
    0 0 0 0 0 0 0 0 0 0 0 0 0 0 0 0 0 0 0 0 0 0 0 0 0 0 0 0 0 0 0 0 0 0
    0 0 0 0 0 0 0 0 0 0 0 0 0 0 0 0 0 0 0 0 0 0 0 0 0 0 0 0 0 0 0 0 0 0
    0 0 0 0 0 0 0 0 0 0 0 0 0 0 0 0 0 0 0 0 0 0 0 0 0 0 0 0 0 0 0 0 0 0
    0 0 0 0 0 0 0 0 0 0 0 0 0 0 0 0 0 0 0 0 0 0 0 0 0 0 0 0 0 0 0 0 0 0
    0 0 0 0 0 0 0 0 0 0 0 0 0 0 0 0 0 0 0 0 0 0 0 0 0 0 0 0 0 0 0 0 0 0
    0 0 0 0 0 0 0 0 0 0 0 0 0 0 0 0 0 0 0 0 0 0 0 0 0 0 0 0 0 0 0 0 0 0
    0 0 0 0 0 0 0 0 0 0 0 0 0 0 0 0 0 0 0 0 0 0 0 0 0 0 0 0 0 0 0 0 0 0
    0 0 0 0 0 0 0 0 0 0 0 0 0 0 0 0 0 0 0 0 0 0 0 0 0 0 0 0 0 0 0 0 0 0
    0 0 0 0 0 0 0 0 0 0 0 0 0 0 0 0 0 0 0 0 0 0 0 0 0 0 0 0 0 0 0 0 0 0
    0 0 0 0 0 0 0 0 0 0 0 0 0 0 0 0 0 0 0 0 0 0 0 0 0 0 0 0 0 0 0 0 0 0
    0 0 0 0 0 0 0 0 0 0 0 0 0 0 0 0 0 0 0 0 0 0 0 0 0 0 0 0 0 0 0 0 0 0
    0 0 0 0 0 0 0 0 0 0 0 0 0 0 0 0 0 0 0 0 0 0 0 0 0 0 0 0 0 0 0 0 0 0
    0 0 0 0 0 0 0 0 0 0 0 0 0 0 0 0 0 0 0 0 0 0 0 0 0 0 0 0 0 0 0 0 0 0
    0 0 0 0 0 0 0 0 0 0 0 0 0 0 0 0 0 0 0 0 0 0 0 0 0 0 0 0 0 0 0 0 0 0
    0 0 0 0 0 0 0 0 0 0 0 0 0 0 0 0 0 0 0 0 0 0 0 0 0 0 0 0 0 0 0 0 0 0
    0 0 0 0 0 0 0 0 0 0 0 0 0 0 0 0 0 0 0 0 0 0 0 0 0 0 0 0 0 0 0 0 0 0
    0 0 0 0 0 0 0 0 0 0 0 0 0 0 0 0 0 0 0 0 0 0 0 0 0 0 0 0 0 0 0 0 0 0
    0 0 0 0 0 0 0 0 0 0 0 0 0 0 0 0 0 0 0 0 0 0 0 0 0 0 0 0 0 0 0 0 0 0
    0 0 0 0 0 0 0 0 0 0 0 0 0 0 0 0 0 0 0 0 0 0 0 0 0 0 0 0 0 0 0 0 0 0
    0 0 0 0 0 0 0 0 0 0 0 0 0 0 0 0 0 0 0 0 0 0 0 0 0 0 0 0 0 0 0 0 0 0
    0 0 0 0 0 0 0 0 0 0 0 0 0 0 0 0 0 0 0 0 0 0 0 0 0 0 0 0 0 0 0 0 0 0
    0 0 0 0 0 0 0 0 0 0 0 0 0 0 0 0 0 0 0 0 0 0 0 0 0 0 0 0 0 0 0 0</cat_ofs>
  <class_labels>
    0 1 2 3 4 5 6 7 8 10 11 12 13 14 15 16 17 20 21 22 23 24 25 26 27 28
    29 30 31 32 34 35 36 37 38 39 40 41 42 43 44 45 46 47 48 49 50 51 52
    53 54 55 56 57</class_labels>
  <missing_subst>
    0. 0. 0. 0. 0. 0. 0. 0. 0. 0. 0. 0. 0. 0. 0. 0. 0. 0. 0. 0. 0. 0. 0.
    0. 0. 0. 0. 0. 0. 0. 0. 0. 0. 0. 0. 0. 0. 0. 0. 0. 0. 0. 0. 0. 0. 0.
    0. 0. 0. 0. 0. 0. 0. 0. 0. 0. 0. 0. 0. 0. 0. 0. 0. 0. 0. 0. 0. 0. 0.
    0. 0. 0. 0. 0. 0. 0. 0. 0. 0. 0. 0. 0. 0. 0. 0. 0. 0. 0. 0. 0. 0. 0.
    0. 0. 0. 0. 0. 0. 0. 0. 0. 0. 0. 0. 0. 0. 0. 0. 0. 0. 0. 0. 0. 0. 0.
    0. 0. 0. 0. 0. 0. 0. 0. 0. 0. 0. 0. 0. 0. 0. 0. 0. 0. 0. 0. 0. 0. 0.
    0. 0. 0. 0. 0. 0. 0. 0. 0. 0. 0. 0. 0. 0. 0. 0. 0. 0. 0. 0. 0. 0. 0.
    0. 0. 0. 0. 0. 0. 0. 0. 0. 0. 0. 0. 0. 0. 0. 0. 0. 0. 0. 0. 0. 0. 0.
    0. 0. 0. 0. 0. 0. 0. 0. 0. 0. 0. 0. 0. 0. 0. 0. 0. 0. 0. 0. 0. 0. 0.
    0. 0. 0. 0. 0. 0. 0. 0. 0. 0. 0. 0. 0. 0. 0. 0. 0. 0. 0. 0. 0. 0. 0.
    0. 0. 0. 0. 0. 0. 0. 0. 0. 0. 0. 0. 0. 0. 0. 0. 0. 0. 0. 0. 0. 0. 0.
    0. 0. 0. 0. 0. 0. 0. 0. 0. 0. 0. 0. 0. 0. 0. 0. 0. 0. 0. 0. 0. 0. 0.
    0. 0. 0. 0. 0. 0. 0. 0. 0. 0. 0. 0. 0. 0. 0. 0. 0. 0. 0. 0. 0. 0. 0.
    0. 0. 0. 0. 0. 0. 0. 0. 0. 0. 0. 0. 0. 0. 0. 0. 0. 0. 0. 0. 0. 0. 0.
    0. 0. 0. 0. 0. 0. 0. 0. 0. 0. 0. 0. 0. 0. 0. 0. 0. 0. 0. 0. 0. 0. 0.
    0. 0. 0. 0. 0. 0. 0. 0. 0. 0. 0. 0. 0. 0. 0. 0. 0. 0. 0. 0. 0. 0. 0.
    0. 0. 0. 0. 0. 0. 0. 0. 0. 0. 0. 0. 0. 0. 0. 0. 0. 0. 0. 0. 0. 0. 0.
    0. 0. 0. 0. 0. 0. 0. 0. 0. 0. 0. 0. 0. 0. 0. 0. 0. 0. 0. 0. 0. 0. 0.
    0. 0. 0. 0. 0. 0. 0. 0. 0. 0. 0. 0. 0. 0. 0. 0. 0. 0. 0. 0. 0. 0. 0.
    0. 0. 0. 0. 0. 0. 0. 0. 0. 0. 0. 0. 0. 0. 0. 0. 0. 0. 0. 0. 0. 0. 0.
    0. 0. 0. 0. 0. 0. 0. 0. 0. 0. 0. 0. 0. 0. 0. 0. 0. 0. 0. 0. 0. 0. 0.
    0. 0. 0. 0. 0. 0. 0. 0. 0. 0. 0. 0. 0. 0. 0. 0. 0. 0. 0. 0. 0. 0. 0.
    0. 0. 0. 0. 0. 0. 0. 0. 0. 0. 0. 0. 0. 0. 0. 0. 0. 0. 0. 0. 0. 0. 0.
    0. 0. 0. 0. 0. 0. 0. 0. 0. 0. 0. 0. 0. 0. 0. 0. 0. 0. 0. 0. 0. 0. 0.
    0. 0. 0. 0. 0. 0. 0. 0. 0. 0. 0. 0. 0. 0. 0. 0. 0. 0. 0. 0. 0. 0. 0.
    0. 0. 0. 0. 0. 0. 0. 0. 0. 0. 0. 0. 0. 0. 0. 0. 0. 0. 0. 0. 0. 0. 0.
    0. 0. 0. 0. 0. 0. 0. 0. 0. 0. 0. 0. 0. 0. 0. 0. 0. 0. 0. 0. 0. 0. 0.
    0. 0. 0. 0. 0. 0. 0. 0. 0. 0. 0. 0. 0. 0. 0. 0. 0. 0. 0. 0. 0. 0. 0.
    0. 0. 0. 0. 0. 0. 0. 0. 0. 0. 0. 0. 0. 0. 0. 0. 0. 0. 0. 0. 0. 0. 0.
    0. 0. 0. 0. 0. 0. 0. 0. 0. 0. 0. 0. 0. 0. 0. 0. 0. 0. 0. 0. 0. 0. 0.
    0. 0. 0. 0. 0. 0. 0. 0. 0. 0. 0. 0. 0. 0. 0. 0. 0. 0. 0. 0. 0. 0. 0.
    0. 0. 0. 0. 0. 0. 0. 0. 0. 0. 0. 0. 0. 0. 0. 0. 0. 0. 0. 0. 0. 0. 0.
    0. 0. 0. 0. 0. 0. 0. 0. 0. 0. 0. 0. 0. 0. 0. 0. 0. 0. 0. 0. 0. 0. 0.
    0. 0. 0. 0. 0. 0. 0. 0. 0. 0. 0. 0. 0. 0. 0. 0. 0. 0. 0. 0. 0. 0. 0.
    0. 0. 0. 0. 0. 0. 0. 0. 0. 0. 0. 0. 0. 0. 0. 0. 0. 0. 0. 0. 0. 0. 0.
    0. 0. 0. 0. 0. 0. 0. 0. 0. 0. 0. 0. 0. 0. 0. 0. 0. 0. 0. 0. 0. 0. 0.
    0. 0. 0. 0. 0. 0. 0. 0. 0. 0. 0. 0. 0. 0. 0. 0. 0. 0. 0. 0. 0. 0. 0.
    0. 0. 0. 0. 0. 0. 0. 0. 0. 0. 0. 0. 0. 0. 0. 0. 0. 0. 0. 0. 0. 0. 0.
    0. 0. 0. 0. 0. 0. 0. 0. 0. 0. 0. 0. 0. 0. 0. 0. 0. 0. 0. 0. 0. 0. 0.
    0. 0. 0. 0. 0. 0. 0. 0. 0. 0. 0. 0. 0. 0. 0. 0. 0. 0. 0. 0. 0. 0. 0.
    0. 0. 0. 0. 0. 0. 0. 0. 0. 0. 0. 0. 0. 0. 0. 0. 0. 0. 0. 0. 0. 0. 0.
    0. 0. 0. 0. 0. 0. 0. 0. 0. 0. 0. 0. 0. 0. 0. 0. 0. 0. 0. 0. 0. 0. 0.
    0. 0. 0. 0. 0. 0. 0. 0. 0. 0. 0. 0. 0. 0. 0. 0. 0. 0. 0. 0. 0. 0. 0.
    0. 0. 0. 0. 0. 0. 0. 0. 0. 0. 0. 0. 0. 0. 0. 0. 0. 0. 0. 0. 0. 0. 0.
    0. 0. 0. 0. 0. 0. 0. 0. 0. 0. 0. 0. 0. 0. 0. 0. 0. 0. 0. 0. 0. 0. 0.
    0. 0. 0. 0. 0. 0. 0. 0. 0. 0. 0. 0. 0. 0. 0. 0. 0. 0. 0. 0. 0. 0. 0.
    0. 0. 0. 0. 0. 0. 0. 0. 0. 0. 0. 0. 0. 0. 0. 0. 0. 0. 0. 0. 0. 0. 0.
    0. 0. 0. 0. 0. 0. 0. 0. 0. 0. 0. 0. 0. 0. 0. 0. 0. 0. 0. 0. 0. 0. 0.
    0. 0. 0. 0. 0. 0. 0. 0. 0. 0. 0. 0. 0. 0. 0. 0. 0. 0. 0. 0. 0. 0. 0.
    0. 0. 0. 0. 0. 0. 0. 0. 0. 0. 0. 0. 0. 0. 0. 0. 0. 0. 0. 0. 0. 0. 0.
    0. 0. 0. 0. 0. 0. 0. 0. 0. 0. 0. 0. 0. 0. 0. 0. 0. 0. 0. 0. 0. 0. 0.
    0. 0. 0. 0. 0. 0. 0. 0. 0. 0. 0. 0. 0. 0. 0. 0. 0. 0. 0. 0. 0. 0. 0.
    0. 0. 0. 0. 0. 0. 0. 0. 0. 0. 0. 0. 0. 0. 0. 0. 0. 0. 0. 0. 0. 0. 0.
    0. 0. 0. 0. 0. 0. 0. 0. 0. 0. 0. 0. 0. 0. 0. 0. 0. 0. 0. 0. 0. 0. 0.
    0. 0. 0. 0. 0. 0. 0. 0. 0. 0. 0. 0. 0. 0. 0. 0. 0. 0. 0. 0. 0. 0. 0.
    0. 0. 0. 0. 0. 0. 0. 0. 0. 0. 0. 0. 0. 0. 0. 0. 0. 0. 0. 0. 0. 0. 0.
    0. 0. 0. 0. 0. 0. 0. 0. 0. 0. 0. 0. 0. 0. 0. 0. 0. 0. 0. 0. 0. 0. 0.
    0. 0. 0. 0. 0. 0. 0. 0. 0. 0. 0. 0. 0. 0. 0. 0. 0. 0. 0. 0. 0. 0. 0.
    0. 0. 0. 0. 0. 0. 0. 0. 0. 0. 0. 0. 0. 0. 0. 0. 0. 0. 0. 0. 0. 0. 0.
    0. 0. 0. 0. 0. 0. 0. 0. 0. 0. 0. 0. 0. 0. 0. 0. 0. 0. 0. 0. 0. 0. 0.
    0. 0. 0. 0. 0. 0. 0. 0. 0. 0. 0. 0. 0. 0. 0. 0. 0. 0. 0. 0. 0. 0. 0.
    0. 0. 0. 0. 0. 0. 0. 0. 0. 0. 0. 0. 0. 0. 0. 0. 0. 0. 0. 0. 0. 0. 0.
    0. 0. 0. 0. 0. 0. 0. 0. 0. 0. 0. 0. 0. 0. 0. 0. 0. 0. 0. 0. 0. 0. 0.
    0. 0. 0. 0. 0. 0. 0. 0. 0. 0. 0. 0. 0. 0. 0. 0. 0. 0. 0. 0. 0. 0. 0.
    0. 0. 0. 0. 0. 0. 0. 0. 0. 0. 0. 0. 0. 0. 0. 0. 0. 0. 0. 0. 0. 0. 0.
    0. 0. 0. 0. 0. 0. 0. 0. 0. 0. 0. 0. 0. 0. 0. 0. 0. 0. 0. 0. 0. 0. 0.
    0. 0. 0. 0. 0. 0. 0. 0. 0. 0. 0. 0. 0. 0. 0. 0. 0. 0. 0. 0. 0. 0. 0.
    0. 0. 0. 0. 0. 0. 0. 0. 0. 0. 0. 0. 0. 0. 0. 0. 0. 0. 0. 0. 0. 0. 0.
    0. 0. 0. 0. 0. 0. 0. 0. 0. 0. 0. 0. 0. 0. 0. 0. 0. 0. 0. 0. 0. 0. 0.
    0. 0. 0. 0. 0. 0. 0. 0. 0. 0. 0. 0. 0. 0. 0. 0. 0. 0. 0. 0. 0. 0. 0.
    0. 0. 0. 0. 0. 0. 0. 0. 0. 0. 0. 0. 0. 0. 0. 0. 0. 0. 0. 0. 0. 0. 0.
    0. 0. 0. 0. 0. 0. 0. 0. 0. 0. 0. 0. 0. 0. 0. 0. 0. 0. 0. 0. 0. 0. 0.
    0. 0. 0. 0. 0. 0. 0. 0. 0. 0. 0. 0. 0. 0. 0. 0. 0. 0. 0. 0. 0. 0. 0.
    0. 0. 0. 0. 0. 0. 0. 0. 0. 0. 0. 0. 0. 0. 0. 0. 0. 0. 0. 0. 0. 0. 0.
    0. 0. 0. 0. 0. 0. 0. 0. 0. 0. 0. 0. 0. 0. 0. 0. 0. 0. 0. 0. 0. 0. 0.
    0. 0. 0. 0. 0. 0. 0. 0. 0. 0. 0. 0. 0. 0. 0. 0. 0. 0. 0. 0. 0. 0. 0.
    0. 0. 0. 0. 0. 0. 0. 0. 0. 0. 0. 0. 0. 0. 0. 0. 0. 0. 0. 0.</missing_subst>
  <oob_error>2.7643400138217000e-03</oob_error>
  <var_importance>
    5.66939416e-04 5.69059572e-04 5.62624715e-04 5.64186950e-04
    5.62624715e-04 5.62661909e-04 5.62624715e-04 5.63480193e-04
    5.62996662e-04 5.63814945e-04 5.63368609e-04 5.62847883e-04
    5.63442998e-04 5.63777750e-04 5.62736299e-04 5.62661909e-04
    5.64075308e-04 5.63294219e-04 5.63108246e-04 5.63814945e-04
    5.81483007e-04 5.63071051e-04 5.62810688e-04 5.62996662e-04
    5.62661909e-04 5.62810688e-04 5.78395731e-04 5.63889334e-04
    5.64819260e-04 5.63368609e-04 5.63071051e-04 5.74192614e-04
    5.63814945e-04 5.79362852e-04 5.63480193e-04 5.63517387e-04
    5.63108246e-04 5.63777750e-04 5.69133961e-04 5.65525959e-04
    5.63517387e-04 5.62624715e-04 5.65079623e-04 5.63628972e-04
    5.63405803e-04 5.62885078e-04 5.66902221e-04 5.63628972e-04
    5.64038113e-04 5.66455885e-04 5.78953710e-04 5.69171156e-04
    5.65079623e-04 5.63591777e-04 5.62996662e-04 5.63182635e-04
    5.64521702e-04 5.64075308e-04 5.63814945e-04 5.63666166e-04
    5.64670481e-04 5.63108246e-04 5.62736299e-04 5.63554582e-04
    5.62773494e-04 5.62959467e-04 5.63740556e-04 5.65563154e-04
    5.64372924e-04 5.64038113e-04 5.68799209e-04 5.63480193e-04
    5.63405803e-04 5.79995161e-04 5.63554582e-04 5.63963724e-04
    5.63071051e-04 5.76945080e-04 5.64149697e-04 5.63628972e-04
    5.62624715e-04 5.62922272e-04 5.64930844e-04 5.63442998e-04
    5.63145441e-04 5.67311363e-04 5.64000919e-04 5.63480193e-04
    5.64038113e-04 5.64186950e-04 5.65749127e-04 5.63405803e-04
    5.68947988e-04 5.63368609e-04 5.68055315e-04 5.65042428e-04
    5.63257025e-04 5.63666166e-04 5.64633287e-04 5.63480193e-04
    5.67571726e-04 5.64075308e-04 5.62661909e-04 5.64372924e-04
    5.64149697e-04 5.70361444e-04 5.63591777e-04 5.63071051e-04
    5.66232717e-04 5.64744871e-04 5.63889334e-04 5.64707676e-04
    5.63108246e-04 5.62736299e-04 5.63554582e-04 5.63666166e-04
    5.68538846e-04 5.64782065e-04 5.62922272e-04 5.78953710e-04
    5.62624715e-04 5.63666166e-04 5.63740556e-04 5.63777750e-04
    5.63814945e-04 5.66455885e-04 5.64447313e-04 5.64744871e-04
    5.63666166e-04 5.65079623e-04 5.65005234e-04 5.64335729e-04
    5.62922272e-04 5.63182635e-04 5.67980926e-04 5.63033856e-04
    5.63108246e-04 5.67013805e-04 5.65265596e-04 5.62885078e-04
    5.63294219e-04 5.65488765e-04 5.64410118e-04 5.64968039e-04
    5.64670481e-04 5.63442998e-04 5.63480193e-04 5.63145441e-04
    5.64335729e-04 5.62996662e-04 5.62624715e-04 5.78879262e-04
    5.64596092e-04 5.64038113e-04 5.65563154e-04 5.63368609e-04
    5.63294219e-04 5.63182635e-04 5.64186950e-04 5.63591777e-04
    5.65079623e-04 5.64521702e-04 5.71626122e-04 5.65116818e-04
    5.69096766e-04 5.64224145e-04 5.63071051e-04 5.67162584e-04
    5.64447313e-04 5.63852140e-04 5.64521702e-04 5.68947988e-04
    5.63963724e-04 5.66158327e-04 5.63145441e-04 5.65786322e-04
    5.69431519e-04 5.65451570e-04 5.71514480e-04 5.66641858e-04
    5.64968039e-04 5.78246953e-04 5.64298534e-04 5.62922272e-04
    5.63814945e-04 5.63703361e-04 5.65897906e-04 5.64186950e-04
    5.64819260e-04 5.63703361e-04 5.82450069e-04 5.63442998e-04
    5.63108246e-04 5.64707676e-04 5.64149697e-04 5.63666166e-04
    5.64372924e-04 5.63814945e-04 5.64744871e-04 5.65414375e-04
    5.63071051e-04 5.63703361e-04 5.65228402e-04 5.63480193e-04
    5.64261340e-04 5.65079623e-04 5.63517387e-04 5.63071051e-04
    5.62959467e-04 5.63517387e-04 5.63033856e-04 5.63405803e-04
    5.65116818e-04 5.63852140e-04 5.65451570e-04 5.64707676e-04
    5.63591777e-04 5.63257025e-04 5.79251267e-04 5.63480193e-04
    5.62773494e-04 5.62736299e-04 5.75494487e-04 5.63480193e-04
    5.63033856e-04 5.62922272e-04 5.63145441e-04 5.63480193e-04
    5.76721912e-04 5.72370016e-04 5.63628972e-04 5.62885078e-04
    5.63182635e-04 5.63703361e-04 5.63405803e-04 5.64298534e-04
    5.63257025e-04 5.62922272e-04 5.62959467e-04 5.63182635e-04
    5.65860712e-04 5.62922272e-04 5.63517387e-04 5.63889334e-04
    5.63703361e-04 5.63591777e-04 5.63071051e-04 5.65116818e-04
    5.65339986e-04 5.66307106e-04 5.70993754e-04 5.62885078e-04
    5.63033856e-04 5.63517387e-04 5.82412875e-04 5.63033856e-04
    5.63963724e-04 5.63517387e-04 5.62661909e-04 5.64633287e-04
    5.63442998e-04 5.64707676e-04 5.62699104e-04 5.63480193e-04
    5.64038113e-04 5.62885078e-04 5.62773494e-04 5.62847883e-04
    5.64670481e-04 5.62736299e-04 5.63442998e-04 5.63963724e-04
    5.64707676e-04 5.63926529e-04 5.63517387e-04 5.62699104e-04
    5.62996662e-04 5.63703361e-04 5.62885078e-04 5.63814945e-04
    5.66865026e-04 5.67608920e-04 5.64447313e-04 5.63814945e-04
    5.72704768e-04 5.64930844e-04 5.68315678e-04 5.62922272e-04
    5.62661909e-04 5.66121133e-04 5.63554582e-04 5.70770586e-04
    5.63889334e-04 5.63814945e-04 5.69245545e-04 5.62810688e-04
    5.64112503e-04 5.62996662e-04 5.63777750e-04 5.66493080e-04
    5.63145441e-04 5.77689032e-04 5.65488765e-04 5.71402896e-04
    5.70993754e-04 5.64782065e-04 5.64372924e-04 5.69171156e-04
    5.64261340e-04 5.63331414e-04 5.64633287e-04 5.64224145e-04
    5.79102489e-04 5.64335729e-04 5.64261340e-04 5.63814945e-04
    5.67980926e-04 5.74378588e-04 5.69431519e-04 5.67980926e-04
    5.66046743e-04 5.63628972e-04 5.76647522e-04 5.63442998e-04
    5.70435834e-04 5.64782065e-04 5.65972296e-04 5.64558897e-04
    5.67720504e-04 5.64038113e-04 5.68799209e-04 5.62736299e-04
    5.69543103e-04 5.63257025e-04 5.64149697e-04 5.62736299e-04
    5.63852140e-04 5.63368609e-04 5.63442998e-04 5.74378588e-04
    5.64000919e-04 5.69357129e-04 5.69617492e-04 5.67348558e-04
    5.66046743e-04 5.63108246e-04 5.64149697e-04 5.64558897e-04
    5.62996662e-04 5.79771993e-04 5.63852140e-04 5.80999476e-04
    5.66158327e-04 5.66939416e-04 5.64521702e-04 5.64782065e-04
    5.64707676e-04 5.67943731e-04 5.63145441e-04 5.64707676e-04
    5.70473028e-04 5.66753442e-04 5.63368609e-04 5.63108246e-04
    5.72667574e-04 5.62736299e-04 5.64744871e-04 5.63777750e-04
    5.68427262e-04 5.67385752e-04 5.72109653e-04 5.65414375e-04
    5.64521702e-04 5.62959467e-04 5.62624715e-04 5.66232717e-04
    5.63108246e-04 5.64930844e-04 5.70584612e-04 5.83194022e-04
    5.68538846e-04 5.73188299e-04 5.66121133e-04 5.66567469e-04
    5.66939416e-04 5.71886485e-04 5.63331414e-04 5.64372924e-04
    5.66121133e-04 5.67683310e-04 5.67794894e-04 5.65116818e-04
    5.67088195e-04 5.70063887e-04 5.71440090e-04 5.63219830e-04
    5.76163991e-04 5.62922272e-04 5.65339986e-04 5.72444405e-04
    5.65897906e-04 5.69877913e-04 5.63294219e-04 5.62624715e-04
    5.64596092e-04 5.64521702e-04 5.81892149e-04 5.67869341e-04
    5.64893649e-04 5.67571726e-04 5.63926529e-04 5.67311363e-04
    5.64670481e-04 5.65600349e-04 5.66307106e-04 5.64558897e-04
    5.64075308e-04 5.67497336e-04 5.63554582e-04 5.69171156e-04
    5.66158327e-04 5.65897906e-04 5.62996662e-04 5.64893649e-04
    5.64149697e-04 5.73076715e-04 5.66121133e-04 5.64447313e-04
    5.65972296e-04 5.66009490e-04 5.72109653e-04 5.64112503e-04
    5.67497336e-04 5.64819260e-04 5.65414375e-04 5.63331414e-04
    5.65339986e-04 5.63852140e-04 5.82003733e-04 5.64410118e-04
    5.64038113e-04 5.63889334e-04 5.68241288e-04 5.67088195e-04
    5.62773494e-04 5.63554582e-04 5.63405803e-04 5.65042428e-04
    5.70249860e-04 5.71588927e-04 5.74378588e-04 5.72704768e-04
    5.65191207e-04 5.64112503e-04 5.73485915e-04 5.66865026e-04
    5.64224145e-04 5.65005234e-04 5.75531682e-04 5.69729134e-04
    5.63182635e-04 5.62922272e-04 5.65749127e-04 5.63591777e-04
    5.63219830e-04 5.66902221e-04 5.65563154e-04 5.64447313e-04
    5.64335729e-04 5.64038113e-04 5.66121133e-04 5.63666166e-04
    5.63182635e-04 5.63294219e-04 5.62996662e-04 5.76573133e-04
    5.63033856e-04 5.63703361e-04 5.63740556e-04 5.63926529e-04
    5.63852140e-04 5.64298534e-04 5.63108246e-04 5.64372924e-04
    5.65711933e-04 5.64856455e-04 5.66083938e-04 5.64893649e-04
    5.63517387e-04 5.62885078e-04 5.63666166e-04 5.79623214e-04
    5.62996662e-04 5.66232717e-04 5.66121133e-04 5.63331414e-04
    5.63071051e-04 5.64335729e-04 5.64298534e-04 5.73076715e-04
    5.65637543e-04 5.64410118e-04 5.63294219e-04 5.63517387e-04
    5.64782065e-04 5.63182635e-04 5.63480193e-04 5.63628972e-04
    5.65525959e-04 5.64298534e-04 5.63219830e-04 5.62736299e-04
    5.64521702e-04 5.72109653e-04 5.74490172e-04 5.63294219e-04
    5.63703361e-04 5.63033856e-04 5.62885078e-04 5.63257025e-04
    5.64707676e-04 5.64819260e-04 5.62847883e-04 5.68092510e-04
    5.66232717e-04 5.64410118e-04 5.64707676e-04 5.67832089e-04
    5.67125389e-04 5.64744871e-04 5.62996662e-04 5.69729134e-04
    5.69580297e-04 5.64335729e-04 5.66232717e-04 5.68799209e-04
    5.64149697e-04 5.65154012e-04 5.64261340e-04 5.65823517e-04
    5.80367108e-04 5.70919365e-04 5.63071051e-04 5.64075308e-04
    5.64149697e-04 5.63108246e-04 5.64224145e-04 5.63145441e-04
    5.63219830e-04 5.66790637e-04 5.72258432e-04 5.65228402e-04
    5.65005234e-04 5.67832089e-04 5.65711933e-04 5.84198278e-04
    5.80032356e-04 5.63033856e-04 5.72109653e-04 5.67385752e-04
    5.66009490e-04 5.71365701e-04 5.67385752e-04 5.63777750e-04
    5.64633287e-04 5.63368609e-04 5.64707676e-04 5.66716248e-04
    5.66790637e-04 5.67088195e-04 5.70473028e-04 5.69877913e-04
    5.65154012e-04 5.74750535e-04 5.63740556e-04 5.66827832e-04
    5.64484508e-04 5.73634694e-04 5.64335729e-04 5.67051000e-04
    5.64968039e-04 5.65935101e-04 5.68910793e-04 5.63480193e-04
    5.64893649e-04 5.66530274e-04 5.84235473e-04 5.63182635e-04
    5.73448720e-04 5.67757699e-04 5.63963724e-04 5.70398639e-04
    5.64224145e-04 5.64224145e-04 5.83045243e-04 5.64335729e-04
    5.67571726e-04 5.63591777e-04 5.67794894e-04 5.64596092e-04
    5.65042428e-04 5.66865026e-04 5.66530274e-04 5.80069551e-04
    5.65154012e-04 5.64298534e-04 5.66939416e-04 5.65563154e-04
    5.64112503e-04 5.64856455e-04 5.64075308e-04 5.77540253e-04
    5.72853547e-04 5.74118225e-04 5.72109653e-04 5.64856455e-04
    5.65005234e-04 5.64186950e-04 5.63703361e-04 5.65972296e-04
    5.66604664e-04 5.72109653e-04 5.68315678e-04 5.66381495e-04
    5.71477285e-04 5.68315678e-04 5.68166899e-04 5.67906536e-04
    5.63182635e-04 5.64447313e-04 5.68390067e-04 5.66641858e-04
    5.74081030e-04 5.66455885e-04 5.67571726e-04 5.66753442e-04
    5.73039521e-04 5.67311363e-04 5.74267004e-04 5.66232717e-04
    5.65972296e-04 5.67720504e-04 5.66121133e-04 5.72630379e-04
    5.66195522e-04 5.64372924e-04 5.66455885e-04 5.69133961e-04
    5.68762014e-04 5.64819260e-04 5.62736299e-04 5.67236973e-04
    5.70398639e-04 5.65154012e-04 5.66195522e-04 5.65005234e-04
    5.65786322e-04 5.63703361e-04 5.64558897e-04 5.65488765e-04
    5.69803524e-04 5.65637543e-04 5.65339986e-04 5.65488765e-04
    5.70138276e-04 5.68762014e-04 5.64149697e-04 5.64744871e-04
    5.68501651e-04 5.65451570e-04 5.74899314e-04 5.68501651e-04
    5.75494487e-04 5.65265596e-04 5.64596092e-04 5.68538846e-04
    5.63777750e-04 5.65116818e-04 5.65860712e-04 5.63777750e-04
    5.65525959e-04 5.64856455e-04 5.79883577e-04 5.65525959e-04
    5.70026692e-04 5.63108246e-04 5.64447313e-04 5.64558897e-04
    5.77726227e-04 5.64558897e-04 5.64038113e-04 5.65897906e-04
    5.72444405e-04 5.64782065e-04 5.73783473e-04 5.65972296e-04
    5.63033856e-04 5.67869341e-04 5.64075308e-04 5.63554582e-04
    5.63703361e-04 5.67534531e-04 5.69096766e-04 5.65525959e-04
    5.67683310e-04 5.66753442e-04 5.77168306e-04 5.64298534e-04
    5.68762014e-04 5.62699104e-04 5.64856455e-04 5.73709083e-04
    5.66381495e-04 5.66493080e-04 5.62736299e-04 5.63703361e-04
    5.66307106e-04 5.70696197e-04 5.63331414e-04 5.65488765e-04
    5.63294219e-04 5.64744871e-04 5.64372924e-04 5.62996662e-04
    5.62810688e-04 5.78284147e-04 5.64261340e-04 5.64521702e-04
    5.69505908e-04 5.63740556e-04 5.62773494e-04 5.64596092e-04
    5.63889334e-04 5.77912200e-04 5.63740556e-04 5.65749127e-04
    5.63368609e-04 5.63852140e-04 5.65563154e-04 5.64670481e-04
    5.64112503e-04 5.62810688e-04 5.63517387e-04 5.65674738e-04
    5.64856455e-04 5.64782065e-04 5.70101081e-04 5.63852140e-04
    5.64558897e-04 5.62847883e-04 5.64372924e-04 5.63703361e-04
    5.65302791e-04 5.64038113e-04 5.63442998e-04 5.63145441e-04
    5.63554582e-04 5.85276983e-04 5.63145441e-04 5.62996662e-04
    5.71737706e-04 5.62959467e-04 5.62996662e-04 5.63442998e-04
    5.65600349e-04 5.64670481e-04 5.71254117e-04 5.62922272e-04
    5.65674738e-04 5.66939416e-04 5.63405803e-04 5.64484508e-04
    5.66344301e-04 5.64038113e-04 5.65972296e-04 5.63182635e-04
    5.64670481e-04 5.64038113e-04 5.65228402e-04 5.64335729e-04
    5.63033856e-04 5.63368609e-04 5.63666166e-04 5.64893649e-04
    5.63219830e-04 5.64633287e-04 5.64075308e-04 5.65488765e-04
    5.63257025e-04 5.64930844e-04 5.64707676e-04 5.64000919e-04
    5.62661909e-04 5.66009490e-04 5.63442998e-04 5.63740556e-04
    5.65525959e-04 5.63554582e-04 5.63219830e-04 5.68576041e-04
    5.67646115e-04 5.63963724e-04 5.64261340e-04 5.65935101e-04
    5.64447313e-04 5.67274168e-04 5.64410118e-04 5.68278483e-04
    5.79214073e-04 5.80701861e-04 5.69022377e-04 5.64856455e-04
    5.63219830e-04 5.66083938e-04 5.73895057e-04 5.70807781e-04
    5.64038113e-04 5.63033856e-04 5.66195522e-04 5.64186950e-04
    5.70063887e-04 5.63852140e-04 5.64261340e-04 5.63294219e-04
    5.64819260e-04 5.66083938e-04 5.63926529e-04 5.69654687e-04
    5.64521702e-04 5.66269911e-04 5.63963724e-04 5.63182635e-04
    5.62959467e-04 5.63145441e-04 5.65154012e-04 5.72741963e-04
    5.73337078e-04 5.72444405e-04 5.63033856e-04 5.71291312e-04
    5.64186950e-04 5.69245545e-04 5.66530274e-04 5.64596092e-04
    5.63963724e-04 5.71737706e-04 5.63740556e-04 5.74862119e-04
    5.85574540e-04 5.62996662e-04 5.64075308e-04 5.69171156e-04
    5.69877913e-04 5.67236973e-04 5.65749127e-04 5.76684717e-04
    5.65823517e-04 5.66493080e-04 5.80627471e-04 5.72779158e-04
    5.63703361e-04 5.67199779e-04 5.64484508e-04 5.66083938e-04
    5.66902221e-04 5.65674738e-04 5.67497336e-04 5.62624715e-04
    5.71514480e-04 5.65637543e-04 5.63554582e-04 5.63368609e-04
    5.79586020e-04 5.77391475e-04 5.64186950e-04 5.67311363e-04
    5.67125389e-04 5.79474436e-04 5.69952303e-04 5.82152512e-04
    5.66046743e-04 5.76498744e-04 5.67794894e-04 5.75903628e-04
    5.71960874e-04 5.79102489e-04 5.64633287e-04 5.67794894e-04
    5.67497336e-04 5.65749127e-04 5.66790637e-04 5.65525959e-04
    5.65302791e-04 5.64372924e-04 5.63889334e-04 5.87583112e-04
    5.64298534e-04 5.65786322e-04 5.64707676e-04 5.66939416e-04
    5.72667574e-04 5.65042428e-04 5.64782065e-04 5.64558897e-04
    5.70844975e-04 5.63071051e-04 5.65823517e-04 5.64596092e-04
    5.82822075e-04 5.73448720e-04 5.65414375e-04 5.65154012e-04
    5.64670481e-04 5.67906536e-04 5.63257025e-04 5.66865026e-04
    5.68613235e-04 5.73969446e-04 5.66009490e-04 5.63963724e-04
    5.65563154e-04 5.64335729e-04 5.66902221e-04 5.62773494e-04
    5.78098174e-04 5.68724819e-04 5.63852140e-04 5.66865026e-04
    5.66939416e-04 5.66083938e-04 5.74192614e-04 5.77168306e-04
    5.62810688e-04 5.66083938e-04 5.72965131e-04 5.68799209e-04
    5.75866434e-04 5.65079623e-04 5.73225494e-04 5.66716248e-04
    5.64000919e-04 5.63182635e-04 5.64186950e-04 5.83119632e-04
    5.66939416e-04 5.66455885e-04 5.64782065e-04 5.65116818e-04
    5.66158327e-04 5.63554582e-04 5.63108246e-04 5.64893649e-04
    5.66232717e-04 5.63926529e-04 5.68278483e-04 5.64186950e-04
    5.64038113e-04 5.66455885e-04 5.64298534e-04 5.63963724e-04
    5.74378588e-04 5.64038113e-04 5.71328506e-04 5.69617492e-04
    5.63145441e-04 5.64112503e-04 5.64112503e-04 5.62773494e-04
    5.65897906e-04 5.67088195e-04 5.64558897e-04 5.66009490e-04
    5.63257025e-04 5.63331414e-04 5.64224145e-04 5.64930844e-04
    5.63033856e-04 5.65116818e-04 5.66158327e-04 5.64484508e-04
    5.65897906e-04 5.63368609e-04 5.65451570e-04 5.63368609e-04
    5.63591777e-04 5.66865026e-04 5.63257025e-04 5.63480193e-04
    5.63963724e-04 5.70287055e-04 5.63591777e-04 5.63740556e-04
    5.64707676e-04 5.63777750e-04 5.66232717e-04 5.64224145e-04
    5.66009490e-04 5.65339986e-04 5.69245545e-04 5.66269911e-04
    5.65563154e-04 5.64038113e-04 5.64521702e-04 5.62922272e-04
    5.64856455e-04 5.66009490e-04 5.64335729e-04 5.63814945e-04
    5.66269911e-04 5.64558897e-04 5.62885078e-04 5.63591777e-04
    5.63294219e-04 5.65451570e-04 5.64670481e-04 5.76349965e-04
    5.63591777e-04 5.74304198e-04 5.63591777e-04 5.64521702e-04
    5.64038113e-04 5.65228402e-04 5.65823517e-04 5.63219830e-04
    5.65339986e-04 5.63628972e-04 5.64186950e-04 5.63145441e-04
    5.62661909e-04 5.63145441e-04 5.72965131e-04 5.65005234e-04
    5.63108246e-04 5.63517387e-04 5.63740556e-04 5.66865026e-04
    5.63740556e-04 5.62736299e-04 5.65116818e-04 5.63182635e-04
    5.62885078e-04 5.65005234e-04 5.63777750e-04 5.63294219e-04
    5.64856455e-04 5.62810688e-04 5.64707676e-04 5.64224145e-04
    5.64447313e-04 5.69319935e-04 5.71030949e-04 5.64038113e-04
    5.63442998e-04 5.64558897e-04 5.69208350e-04 5.66381495e-04
    5.63257025e-04 5.63517387e-04 5.63480193e-04 5.72072458e-04
    5.62699104e-04 5.70063887e-04 5.68166899e-04 5.63740556e-04
    5.63591777e-04 5.63071051e-04 5.67125389e-04 5.63926529e-04
    5.65265596e-04 5.64596092e-04 5.63703361e-04 5.64782065e-04
    5.66083938e-04 5.69840719e-04 5.64521702e-04 5.63480193e-04
    5.65191207e-04 5.63666166e-04 5.64186950e-04 5.65414375e-04
    5.73299883e-04 5.66976611e-04 5.63108246e-04 5.65563154e-04
    5.75978018e-04 5.63777750e-04 5.64149697e-04 5.63554582e-04
    5.65042428e-04 5.68576041e-04 5.71291312e-04 5.69133961e-04
    5.70361444e-04 5.70324250e-04 5.64149697e-04 5.65116818e-04
    5.70287055e-04 5.67794894e-04 5.63368609e-04 5.64224145e-04
    5.66344301e-04 5.63926529e-04 5.68241288e-04 5.64670481e-04
    5.62959467e-04 5.68427262e-04 5.67720504e-04 5.64819260e-04
    5.64558897e-04 5.71588927e-04 5.64335729e-04 5.65414375e-04
    5.65377180e-04 5.65451570e-04 5.65488765e-04 5.65302791e-04
    5.65265596e-04 5.76163991e-04 5.66939416e-04 5.64335729e-04
    5.70324250e-04 5.66232717e-04 5.71142533e-04 5.62661909e-04
    5.65563154e-04 5.64893649e-04 5.65563154e-04 5.66269911e-04
    5.65637543e-04 5.65302791e-04 5.66604664e-04 5.67534531e-04
    5.67646115e-04 5.67088195e-04 5.63740556e-04 5.64558897e-04
    5.65637543e-04 5.77428669e-04 5.75866434e-04 5.71960874e-04
    5.66195522e-04 5.69357129e-04 5.69840719e-04 5.66269911e-04
    5.63814945e-04 5.66902221e-04 5.64298534e-04 5.67236973e-04
    5.71923680e-04 5.65786322e-04 5.65079623e-04 5.66009490e-04
    5.64744871e-04 5.63963724e-04 5.63033856e-04 5.63442998e-04
    5.64744871e-04 5.63814945e-04 5.69505908e-04 5.70249860e-04
    5.67125389e-04 5.65525959e-04 5.63331414e-04 5.69208350e-04
    5.65525959e-04 5.63591777e-04 5.64000919e-04 5.64670481e-04
    5.65228402e-04 5.64596092e-04 5.63852140e-04 5.66083938e-04
    5.68129704e-04 5.67422947e-04 5.64521702e-04 5.66530274e-04
    5.80701861e-04 5.65823517e-04 5.68166899e-04 5.66232717e-04
    5.65637543e-04 5.70473028e-04 5.63777750e-04 5.63442998e-04
    5.64298534e-04 5.63554582e-04 5.66679053e-04 5.65265596e-04
    5.75234066e-04 5.64186950e-04 5.67571726e-04 5.67869341e-04
    5.76015213e-04 5.67088195e-04 5.66827832e-04 5.64261340e-04
    5.66753442e-04 5.68650430e-04 5.63368609e-04 5.64670481e-04
    5.64112503e-04 5.65749127e-04 5.65600349e-04 5.64186950e-04
    5.64298534e-04 5.75494487e-04 5.65786322e-04 5.62736299e-04
    5.65897906e-04 5.63926529e-04 5.73225494e-04 5.65228402e-04
    5.63331414e-04 5.76052407e-04 5.66790637e-04 5.64484508e-04
    5.63889334e-04 5.77019469e-04 5.65377180e-04 5.73560304e-04
    5.62885078e-04 5.63926529e-04 5.63294219e-04 5.64633287e-04
    5.64893649e-04 5.65079623e-04 5.71402896e-04 5.64893649e-04
    5.64298534e-04 5.64670481e-04 5.64596092e-04 5.65414375e-04
    5.63442998e-04 5.64558897e-04 5.65860712e-04 5.63257025e-04
    5.63480193e-04 5.66641858e-04 5.66455885e-04 5.64782065e-04
    5.64596092e-04 5.65451570e-04 5.63405803e-04 5.63145441e-04
    5.63182635e-04 5.64930844e-04 5.63331414e-04 5.63331414e-04
    5.66195522e-04 5.63591777e-04 5.63554582e-04 5.63442998e-04
    5.65228402e-04 5.68687625e-04 5.66195522e-04 5.69691882e-04
    5.65339986e-04 5.63257025e-04 5.64298534e-04 5.63852140e-04
    5.63554582e-04 5.63257025e-04 5.62996662e-04 5.63182635e-04
    5.63666166e-04 5.62959467e-04 5.63852140e-04 5.63628972e-04
    5.63963724e-04 5.77093859e-04 5.63368609e-04 5.63145441e-04
    5.70659002e-04 5.63145441e-04 5.62736299e-04 5.66530274e-04
    5.63703361e-04 5.72481600e-04 5.65042428e-04 5.65637543e-04
    5.67385752e-04 5.64112503e-04 5.76089602e-04 5.63405803e-04
    5.63331414e-04 5.64782065e-04 5.64670481e-04 5.62810688e-04
    5.64038113e-04 5.64930844e-04 5.64410118e-04 5.62996662e-04
    5.63294219e-04 5.65972296e-04 5.63368609e-04 5.63108246e-04
    5.64261340e-04 5.65786322e-04 5.63517387e-04 5.64372924e-04
    5.64484508e-04 5.64930844e-04 5.65823517e-04 5.62736299e-04
    5.67608920e-04 5.69059572e-04 5.66158327e-04 5.62736299e-04
    5.64782065e-04 5.63368609e-04 5.63368609e-04 5.73113910e-04
    5.85686124e-04 5.65414375e-04 5.64558897e-04 5.63145441e-04
    5.63331414e-04 5.63145441e-04 5.63071051e-04 5.66530274e-04
    5.71030949e-04 5.84049500e-04 5.64372924e-04 5.63480193e-04
    5.66827832e-04 5.63442998e-04 5.75122482e-04 5.68352873e-04
    5.62922272e-04 5.65897906e-04 5.64856455e-04 5.62847883e-04
    5.63145441e-04 5.62922272e-04 5.64224145e-04 5.63591777e-04
    5.63777750e-04 5.63740556e-04 5.69877913e-04 5.65637543e-04
    5.67125389e-04 5.71849290e-04 5.67980926e-04 5.62773494e-04
    5.66344301e-04 5.65228402e-04 5.79697604e-04 5.64633287e-04
    5.63145441e-04 5.64930844e-04 5.63257025e-04 5.65079623e-04
    5.64670481e-04 5.68018120e-04 5.67906536e-04 5.63852140e-04
    5.65823517e-04 5.62847883e-04 5.66493080e-04 5.63963724e-04
    5.63628972e-04 5.65935101e-04 5.63740556e-04 5.64596092e-04
    5.62810688e-04 5.78767678e-04 5.63963724e-04 5.68278483e-04
    5.70063887e-04 5.63033856e-04 5.69543103e-04 5.64410118e-04
    5.76647522e-04 5.65637543e-04 5.65674738e-04 5.69394324e-04
    5.64782065e-04 5.65749127e-04 5.64596092e-04 5.67943731e-04
    5.63777750e-04 5.66046743e-04 5.65191207e-04 5.63852140e-04
    5.65823517e-04 5.62922272e-04 5.64484508e-04 5.63591777e-04
    5.68241288e-04 5.63666166e-04 5.86169655e-04 5.65191207e-04
    5.64782065e-04 5.66046743e-04 5.68687625e-04 5.67088195e-04
    5.63108246e-04 5.64782065e-04 5.68947988e-04 5.63740556e-04
    5.63703361e-04 5.76721912e-04 5.63219830e-04 5.68241288e-04
    5.64038113e-04 5.68538846e-04 5.63033856e-04 5.64484508e-04
    5.63219830e-04 5.66381495e-04 5.64261340e-04 5.66307106e-04
    5.68129704e-04 5.66493080e-04 5.65079623e-04 5.65339986e-04
    5.64447313e-04 5.64633287e-04 5.64410118e-04 5.76163991e-04
    5.68092510e-04 5.66307106e-04 5.69766329e-04 5.62661909e-04
    5.68315678e-04 5.65339986e-04 5.64521702e-04 5.63926529e-04
    5.63740556e-04 5.65823517e-04 5.69245545e-04 5.63294219e-04
    5.63889334e-04 5.64558897e-04 5.62773494e-04 5.69840719e-04
    5.66976611e-04 5.64521702e-04 5.66083938e-04 5.71291312e-04
    5.63517387e-04 5.63368609e-04 5.67497336e-04 5.66381495e-04
    5.67348558e-04 5.63628972e-04 5.65339986e-04 5.65637543e-04
    5.65339986e-04 5.65525959e-04 5.63517387e-04 5.63591777e-04
    5.64038113e-04 5.74750535e-04 5.64670481e-04 5.66939416e-04
    5.75754850e-04 5.69357129e-04 5.67497336e-04 5.63889334e-04
    5.72146848e-04 5.63368609e-04 5.63852140e-04 5.64149697e-04
    5.64596092e-04 5.64819260e-04 5.79102489e-04 5.63740556e-04
    5.64521702e-04 5.63517387e-04 5.65228402e-04 5.64707676e-04
    5.63740556e-04 5.66083938e-04 5.67051000e-04 5.64000919e-04
    5.63071051e-04 5.65860712e-04 5.66158327e-04 5.64484508e-04
    5.62773494e-04 5.63628972e-04 5.68873598e-04 5.64372924e-04
    5.63814945e-04 5.63442998e-04 5.64410118e-04 5.63554582e-04
    5.64335729e-04 5.67497336e-04 5.63814945e-04 5.62810688e-04
    5.62996662e-04 5.64335729e-04 5.62959467e-04 5.62736299e-04
    5.63033856e-04 5.63108246e-04 5.63108246e-04 5.63666166e-04
    5.64186950e-04 5.65451570e-04 5.63889334e-04 5.63740556e-04
    5.63331414e-04 5.64372924e-04 5.63926529e-04 5.62922272e-04
    5.63777750e-04 5.63814945e-04 5.63814945e-04 5.63033856e-04
    5.63405803e-04 5.62736299e-04 5.63703361e-04 5.62847883e-04
    5.64149697e-04 5.63108246e-04 5.64372924e-04 5.64149697e-04
    5.68687625e-04 5.63517387e-04 5.64484508e-04 5.65154012e-04
    5.63257025e-04 5.65488765e-04 5.63666166e-04 5.63889334e-04
    5.64484508e-04 5.63628972e-04 5.63926529e-04 5.62885078e-04
    5.62699104e-04 5.63257025e-04 5.63145441e-04 5.63071051e-04
    5.69208350e-04 5.63963724e-04 5.64261340e-04 5.62624715e-04
    5.65005234e-04 5.64149697e-04 5.62736299e-04 5.63852140e-04
    5.62736299e-04 5.63071051e-04 5.89219737e-04 5.63889334e-04
    5.62847883e-04 5.64149697e-04 5.63405803e-04 5.63405803e-04
    5.63294219e-04 5.63294219e-04 5.65897906e-04 5.64447313e-04
    5.64186950e-04 5.63777750e-04 5.63257025e-04 5.63963724e-04
    5.63108246e-04 5.62699104e-04 5.66046743e-04 5.63814945e-04
    5.66567469e-04 5.62699104e-04 5.63517387e-04 5.64335729e-04
    5.62773494e-04 5.64484508e-04 5.62773494e-04 5.63889334e-04
    5.62773494e-04 5.64670481e-04 5.63480193e-04 5.64744871e-04
    5.62699104e-04 5.64447313e-04 5.62885078e-04 5.63926529e-04
    5.63294219e-04 5.69059572e-04 5.77912200e-04 5.63108246e-04
    5.62885078e-04 5.64596092e-04 5.63108246e-04 5.62885078e-04
    5.65265596e-04 5.63628972e-04 5.62736299e-04 5.64782065e-04
    5.68501651e-04 5.64149697e-04 5.64521702e-04 5.62773494e-04
    5.63182635e-04 5.62959467e-04 5.64707676e-04 5.62773494e-04
    5.63368609e-04 5.67460142e-04 5.63331414e-04 5.63033856e-04
    5.63814945e-04 5.63033856e-04 5.63331414e-04 5.62922272e-04
    5.63033856e-04 5.65414375e-04 5.69505908e-04 5.63480193e-04
    5.62847883e-04 5.63108246e-04 5.64968039e-04 5.64447313e-04
    5.67088195e-04 5.63405803e-04 5.64000919e-04 5.66679053e-04
    5.63071051e-04 5.63740556e-04 5.66344301e-04 5.62773494e-04
    5.65600349e-04 5.66641858e-04 5.64372924e-04 5.69431519e-04
    5.63814945e-04 5.67646115e-04 5.63108246e-04 5.65935101e-04
    5.65711933e-04 5.63145441e-04 5.64112503e-04 5.70844975e-04
    5.68501651e-04 5.63666166e-04 5.64372924e-04 5.62624715e-04
    5.64186950e-04 5.63294219e-04 5.64038113e-04 5.62996662e-04
    5.63889334e-04 5.63703361e-04 5.65191207e-04 5.63554582e-04
    5.63331414e-04 5.62773494e-04 5.63219830e-04 5.63442998e-04
    5.63889334e-04 5.76238381e-04 5.65414375e-04 5.62810688e-04
    5.64075308e-04 5.63591777e-04 5.64521702e-04 5.65860712e-04
    5.63517387e-04 5.63108246e-04 5.63666166e-04 5.68427262e-04
    5.65637543e-04 5.64000919e-04 5.74192614e-04 5.64186950e-04
    5.63145441e-04 5.64298534e-04 5.63480193e-04 5.64075308e-04
    5.65191207e-04 5.68352873e-04 5.65079623e-04 5.64596092e-04
    5.64372924e-04 5.63777750e-04 5.65377180e-04 5.64558897e-04
    5.63703361e-04 5.64149697e-04 5.63480193e-04 5.63033856e-04
    5.66009490e-04 5.63442998e-04 5.63219830e-04 5.63405803e-04
    5.63889334e-04 5.63889334e-04 5.62922272e-04 5.63405803e-04
    5.70101081e-04 5.65488765e-04 5.64261340e-04 5.63480193e-04
    5.64298534e-04 5.64558897e-04 5.63442998e-04 5.69022377e-04
    5.81780565e-04 5.62885078e-04 5.63331414e-04 5.63368609e-04
    5.63480193e-04 5.63740556e-04 5.63145441e-04 5.63814945e-04
    5.62996662e-04 5.64038113e-04 5.62624715e-04 5.63777750e-04
    5.68762014e-04 5.63703361e-04 5.64298534e-04 5.64372924e-04
    5.64075308e-04 5.64000919e-04 5.63145441e-04 5.64819260e-04
    5.63628972e-04 5.66567469e-04 5.63033856e-04 5.64038113e-04
    5.62996662e-04 5.63814945e-04 5.66976611e-04 5.63294219e-04
    5.63368609e-04 5.68055315e-04 5.64149697e-04 5.65525959e-04
    5.63442998e-04 5.64000919e-04 5.64149697e-04 5.64372924e-04
    5.66158327e-04 5.63331414e-04 5.63219830e-04 5.70510223e-04
    5.62959467e-04 5.63740556e-04 5.63480193e-04 5.64447313e-04
    5.63628972e-04 5.62996662e-04 5.64856455e-04 5.64930844e-04
    5.64112503e-04 5.63591777e-04 5.64298534e-04 5.62773494e-04
    5.63071051e-04 5.63889334e-04 5.62847883e-04 5.64410118e-04
    5.63889334e-04 5.63108246e-04 5.71514480e-04 5.64149697e-04
    5.64484508e-04 5.65228402e-04 5.63368609e-04 5.68910793e-04
    5.62624715e-04 5.62699104e-04 5.62661909e-04</var_importance>
  <ntrees>50</ntrees>
  <trees>
    <_>
      <nodes>
        <_>
          <depth>0</depth>
          <value>54.</value>
          <norm_class_idx>50</norm_class_idx>
          <splits>
            <_><var>77</var>
              <quality>2.1069192504882812e+02</quality>
              <le>4.6654031393700279e-06</le></_></splits></_>
        <_>
          <depth>1</depth>
          <value>43.</value>
          <norm_class_idx>39</norm_class_idx>
          <splits>
            <_><var>858</var>
              <quality>1.1208393096923828e+02</quality>
              <le>3.9841353893280029e-02</le></_></splits></_>
        <_>
          <depth>2</depth>
          <value>43.</value>
          <norm_class_idx>39</norm_class_idx>
          <splits>
            <_><var>638</var>
              <quality>1.4720278930664062e+02</quality>
              <le>3.1895780563354492e-01</le></_></splits></_>
        <_>
          <depth>3</depth>
          <value>11.</value>
          <norm_class_idx>10</norm_class_idx>
          <splits>
            <_><var>638</var>
              <quality>2.4177286148071289e+01</quality>
              <le>2.2438341379165649e-01</le></_></splits></_>
        <_>
          <depth>4</depth>
          <value>11.</value>
          <norm_class_idx>10</norm_class_idx>
          <splits>
            <_><var>111</var>
              <quality>2.1328865051269531e+01</quality>
              <le>2.1206220844760537e-04</le></_></splits></_>
        <_>
          <depth>5</depth>
          <value>11.</value>
          <norm_class_idx>10</norm_class_idx>
          <splits>
            <_><var>1682</var>
              <quality>2.1485347747802734e+01</quality>
              <le>1.8067902326583862e-01</le></_></splits></_>
        <_>
          <depth>6</depth>
          <value>11.</value>
          <norm_class_idx>10</norm_class_idx>
          <splits>
            <_><var>393</var>
              <quality>2.4714284896850586e+01</quality>
              <le>2.8266562731005251e-04</le></_></splits></_>
        <_>
          <depth>7</depth>
          <value>11.</value>
          <norm_class_idx>10</norm_class_idx>
          <splits>
            <_><var>1171</var>
              <quality>2.4319999694824219e+01</quality>
              <le>2.4718886613845825e-01</le></_></splits></_>
        <_>
          <depth>8</depth>
          <value>11.</value>
          <norm_class_idx>10</norm_class_idx>
          <splits>
            <_><var>1301</var>
              <quality>25.</quality>
              <le>1.7792274057865143e-01</le></_></splits></_>
        <_>
          <depth>9</depth>
          <value>11.</value>
          <norm_class_idx>10</norm_class_idx></_>
        <_>
          <depth>9</depth>
          <value>5.</value>
          <norm_class_idx>5</norm_class_idx></_>
        <_>
          <depth>8</depth>
          <value>10.</value>
          <norm_class_idx>9</norm_class_idx></_>
        <_>
          <depth>7</depth>
          <value>36.</value>
          <norm_class_idx>32</norm_class_idx>
          <splits>
            <_><var>600</var>
              <quality>1.2300000190734863e+01</quality>
              <le>1.1280789971351624e-02</le></_></splits></_>
        <_>
          <depth>8</depth>
          <value>36.</value>
          <norm_class_idx>32</norm_class_idx></_>
        <_>
          <depth>8</depth>
          <value>39.</value>
          <norm_class_idx>35</norm_class_idx>
          <splits>
            <_><var>1577</var>
              <quality>9.5714282989501953e+00</quality>
              <le>2.2612003982067108e-01</le></_></splits></_>
        <_>
          <depth>9</depth>
          <value>3.</value>
          <norm_class_idx>3</norm_class_idx>
          <splits>
            <_><var>721</var>
              <quality>7.7777776718139648e+00</quality>
              <le>1.6072127036750317e-03</le></_></splits></_>
        <_>
          <depth>10</depth>
          <value>3.</value>
          <norm_class_idx>3</norm_class_idx></_>
        <_>
          <depth>10</depth>
          <value>27.</value>
          <norm_class_idx>24</norm_class_idx></_>
        <_>
          <depth>9</depth>
          <value>39.</value>
          <norm_class_idx>35</norm_class_idx></_>
        <_>
          <depth>6</depth>
          <value>16.</value>
          <norm_class_idx>15</norm_class_idx>
          <splits>
            <_><var>575</var>
              <quality>1.8144927978515625e+01</quality>
              <le>1.5927378833293915e-01</le></_></splits></_>
        <_>
          <depth>7</depth>
          <value>16.</value>
          <norm_class_idx>15</norm_class_idx>
          <splits>
            <_><var>550</var>
              <quality>1.6387096405029297e+01</quality>
              <le>2.8853708505630493e-01</le></_></splits></_>
        <_>
          <depth>8</depth>
          <value>16.</value>
          <norm_class_idx>15</norm_class_idx>
          <splits>
            <_><var>1712</var>
              <quality>1.6681318283081055e+01</quality>
              <le>2.7645459771156311e-01</le></_></splits></_>
        <_>
          <depth>9</depth>
          <value>16.</value>
          <norm_class_idx>15</norm_class_idx>
          <splits>
            <_><var>1241</var>
              <quality>1.9922559738159180e+01</quality>
              <le>3.6763608455657959e-02</le></_></splits></_>
        <_>
          <depth>10</depth>
          <value>2.</value>
          <norm_class_idx>2</norm_class_idx></_>
        <_>
          <depth>10</depth>
          <value>16.</value>
          <norm_class_idx>15</norm_class_idx></_>
        <_>
          <depth>9</depth>
          <value>10.</value>
          <norm_class_idx>9</norm_class_idx>
          <splits>
            <_><var>1136</var>
              <quality>13.</quality>
              <le>7.9555109143257141e-02</le></_></splits></_>
        <_>
          <depth>10</depth>
          <value>10.</value>
          <norm_class_idx>9</norm_class_idx></_>
        <_>
          <depth>10</depth>
          <value>17.</value>
          <norm_class_idx>16</norm_class_idx></_>
        <_>
          <depth>8</depth>
          <value>50.</value>
          <norm_class_idx>46</norm_class_idx></_>
        <_>
          <depth>7</depth>
          <value>40.</value>
          <norm_class_idx>36</norm_class_idx></_>
        <_>
          <depth>5</depth>
          <value>46.</value>
          <norm_class_idx>42</norm_class_idx>
          <splits>
            <_><var>215</var>
              <quality>1.9605991363525391e+01</quality>
              <le>3.5715088248252869e-02</le></_></splits></_>
        <_>
          <depth>6</depth>
          <value>46.</value>
          <norm_class_idx>42</norm_class_idx>
          <splits>
            <_><var>1252</var>
              <quality>2.1799999237060547e+01</quality>
              <le>1.2681493535637856e-02</le></_></splits></_>
        <_>
          <depth>7</depth>
          <value>46.</value>
          <norm_class_idx>42</norm_class_idx></_>
        <_>
          <depth>7</depth>
          <value>6.</value>
          <norm_class_idx>6</norm_class_idx>
          <splits>
            <_><var>1094</var>
              <quality>7.5999999046325684e+00</quality>
              <le>1.8347050249576569e-01</le></_></splits></_>
        <_>
          <depth>8</depth>
          <value>7.</value>
          <norm_class_idx>7</norm_class_idx>
          <splits>
            <_><var>296</var>
              <quality>5.</quality>
              <le>2.0657887682318687e-02</le></_></splits></_>
        <_>
          <depth>9</depth>
          <value>7.</value>
          <norm_class_idx>7</norm_class_idx></_>
        <_>
          <depth>9</depth>
          <value>50.</value>
          <norm_class_idx>46</norm_class_idx></_>
        <_>
          <depth>8</depth>
          <value>6.</value>
          <norm_class_idx>6</norm_class_idx></_>
        <_>
          <depth>6</depth>
          <value>35.</value>
          <norm_class_idx>31</norm_class_idx>
          <splits>
            <_><var>567</var>
              <quality>1.5095237731933594e+01</quality>
              <le>2.2523976862430573e-01</le></_></splits></_>
        <_>
          <depth>7</depth>
          <value>7.</value>
          <norm_class_idx>7</norm_class_idx>
          <splits>
            <_><var>905</var>
              <quality>1.0166666984558105e+01</quality>
              <le>3.1848456710577011e-03</le></_></splits></_>
        <_>
          <depth>8</depth>
          <value>17.</value>
          <norm_class_idx>16</norm_class_idx>
          <splits>
            <_><var>1495</var>
              <quality>9.</quality>
              <le>3.1919407844543457e-01</le></_></splits></_>
        <_>
          <depth>9</depth>
          <value>54.</value>
          <norm_class_idx>50</norm_class_idx></_>
        <_>
          <depth>9</depth>
          <value>17.</value>
          <norm_class_idx>16</norm_class_idx></_>
        <_>
          <depth>8</depth>
          <value>7.</value>
          <norm_class_idx>7</norm_class_idx>
          <splits>
            <_><var>1286</var>
              <quality>1.0333333015441895e+01</quality>
              <le>1.9591752439737320e-02</le></_></splits></_>
        <_>
          <depth>9</depth>
          <value>24.</value>
          <norm_class_idx>21</norm_class_idx>
          <splits>
            <_><var>1306</var>
              <quality>6.</quality>
              <le>2.7785329148173332e-02</le></_></splits></_>
        <_>
          <depth>10</depth>
          <value>24.</value>
          <norm_class_idx>21</norm_class_idx></_>
        <_>
          <depth>10</depth>
          <value>45.</value>
          <norm_class_idx>41</norm_class_idx></_>
        <_>
          <depth>9</depth>
          <value>7.</value>
          <norm_class_idx>7</norm_class_idx></_>
        <_>
          <depth>7</depth>
          <value>35.</value>
          <norm_class_idx>31</norm_class_idx></_>
        <_>
          <depth>4</depth>
          <value>5.</value>
          <norm_class_idx>5</norm_class_idx>
          <splits>
            <_><var>835</var>
              <quality>2.0200000762939453e+01</quality>
              <le>8.7059527868404984e-04</le></_></splits></_>
        <_>
          <depth>5</depth>
          <value>54.</value>
          <norm_class_idx>50</norm_class_idx></_>
        <_>
          <depth>5</depth>
          <value>5.</value>
          <norm_class_idx>5</norm_class_idx>
          <splits>
            <_><var>1178</var>
              <quality>1.9701864242553711e+01</quality>
              <le>2.6501888036727905e-01</le></_></splits></_>
        <_>
          <depth>6</depth>
          <value>5.</value>
          <norm_class_idx>5</norm_class_idx>
          <splits>
            <_><var>1626</var>
              <quality>2.1500000000000000e+01</quality>
              <le>2.5469911098480225e-01</le></_></splits></_>
        <_>
          <depth>7</depth>
          <value>5.</value>
          <norm_class_idx>5</norm_class_idx></_>
        <_>
          <depth>7</depth>
          <value>35.</value>
          <norm_class_idx>31</norm_class_idx>
          <splits>
            <_><var>1116</var>
              <quality>4.</quality>
              <le>1.9075633585453033e-01</le></_></splits></_>
        <_>
          <depth>8</depth>
          <value>35.</value>
          <norm_class_idx>31</norm_class_idx></_>
        <_>
          <depth>8</depth>
          <value>32.</value>
          <norm_class_idx>29</norm_class_idx></_>
        <_>
          <depth>6</depth>
          <value>31.</value>
          <norm_class_idx>28</norm_class_idx>
          <splits>
            <_><var>66</var>
              <quality>7.</quality>
              <le>6.2404073774814606e-02</le></_></splits></_>
        <_>
          <depth>7</depth>
          <value>2.</value>
          <norm_class_idx>2</norm_class_idx></_>
        <_>
          <depth>7</depth>
          <value>31.</value>
          <norm_class_idx>28</norm_class_idx></_>
        <_>
          <depth>3</depth>
          <value>43.</value>
          <norm_class_idx>39</norm_class_idx>
          <splits>
            <_><var>462</var>
              <quality>1.5187895202636719e+02</quality>
              <le>5.4929088801145554e-03</le></_></splits></_>
        <_>
          <depth>4</depth>
          <value>7.</value>
          <norm_class_idx>7</norm_class_idx>
          <splits>
            <_><var>910</var>
              <quality>16.</quality>
              <le>3.7191972136497498e-02</le></_></splits></_>
        <_>
          <depth>5</depth>
          <value>7.</value>
          <norm_class_idx>7</norm_class_idx></_>
        <_>
          <depth>5</depth>
          <value>34.</value>
          <norm_class_idx>30</norm_class_idx></_>
        <_>
          <depth>4</depth>
          <value>43.</value>
          <norm_class_idx>39</norm_class_idx>
          <splits>
            <_><var>613</var>
              <quality>1.6938285827636719e+02</quality>
              <le>3.9639455080032349e-01</le></_></splits></_>
        <_>
          <depth>5</depth>
          <value>43.</value>
          <norm_class_idx>39</norm_class_idx>
          <splits>
            <_><var>196</var>
              <quality>1.6080645751953125e+02</quality>
              <le>5.1130235195159912e-02</le></_></splits></_>
        <_>
          <depth>6</depth>
          <value>43.</value>
          <norm_class_idx>39</norm_class_idx></_>
        <_>
          <depth>6</depth>
          <value>43.</value>
          <norm_class_idx>39</norm_class_idx>
          <splits>
            <_><var>1675</var>
              <quality>31.</quality>
              <le>1.3880814425647259e-02</le></_></splits></_>
        <_>
          <depth>7</depth>
          <value>44.</value>
          <norm_class_idx>40</norm_class_idx></_>
        <_>
          <depth>7</depth>
          <value>43.</value>
          <norm_class_idx>39</norm_class_idx></_>
        <_>
          <depth>5</depth>
          <value>34.</value>
          <norm_class_idx>30</norm_class_idx></_>
        <_>
          <depth>2</depth>
          <value>49.</value>
          <norm_class_idx>45</norm_class_idx>
          <splits>
            <_><var>727</var>
              <quality>8.8001853942871094e+01</quality>
              <le>2.8315511345863342e-01</le></_></splits></_>
        <_>
          <depth>3</depth>
          <value>49.</value>
          <norm_class_idx>45</norm_class_idx>
          <splits>
            <_><var>887</var>
              <quality>7.1124961853027344e+01</quality>
              <le>2.8743803501129150e-01</le></_></splits></_>
        <_>
          <depth>4</depth>
          <value>49.</value>
          <norm_class_idx>45</norm_class_idx>
          <splits>
            <_><var>1135</var>
              <quality>6.6513633728027344e+01</quality>
              <le>3.1203749775886536e-01</le></_></splits></_>
        <_>
          <depth>5</depth>
          <value>49.</value>
          <norm_class_idx>45</norm_class_idx>
          <splits>
            <_><var>845</var>
              <quality>5.8684383392333984e+01</quality>
              <le>4.6028204262256622e-02</le></_></splits></_>
        <_>
          <depth>6</depth>
          <value>49.</value>
          <norm_class_idx>45</norm_class_idx>
          <splits>
            <_><var>1041</var>
              <quality>6.1179393768310547e+01</quality>
              <le>7.9084023833274841e-02</le></_></splits></_>
        <_>
          <depth>7</depth>
          <value>11.</value>
          <norm_class_idx>10</norm_class_idx>
          <splits>
            <_><var>56</var>
              <quality>2.1340000152587891e+01</quality>
              <le>2.1963771432638168e-03</le></_></splits></_>
        <_>
          <depth>8</depth>
          <value>11.</value>
          <norm_class_idx>10</norm_class_idx>
          <splits>
            <_><var>1115</var>
              <quality>2.3015674591064453e+01</quality>
              <le>7.3580801486968994e-02</le></_></splits></_>
        <_>
          <depth>9</depth>
          <value>56.</value>
          <norm_class_idx>52</norm_class_idx>
          <splits>
            <_><var>1401</var>
              <quality>11.</quality>
              <le>3.8808688521385193e-02</le></_></splits></_>
        <_>
          <depth>10</depth>
          <value>56.</value>
          <norm_class_idx>52</norm_class_idx></_>
        <_>
          <depth>10</depth>
          <value>4.</value>
          <norm_class_idx>4</norm_class_idx></_>
        <_>
          <depth>9</depth>
          <value>11.</value>
          <norm_class_idx>10</norm_class_idx>
          <splits>
            <_><var>637</var>
              <quality>2.3750000000000000e+01</quality>
              <le>3.0489021810353734e-05</le></_></splits></_>
        <_>
          <depth>10</depth>
          <value>56.</value>
          <norm_class_idx>52</norm_class_idx></_>
        <_>
          <depth>10</depth>
          <value>11.</value>
          <norm_class_idx>10</norm_class_idx></_>
        <_>
          <depth>8</depth>
          <value>2.</value>
          <norm_class_idx>2</norm_class_idx>
          <splits>
            <_><var>871</var>
              <quality>1.1526315689086914e+01</quality>
              <le>1.0414749849587679e-03</le></_></splits></_>
        <_>
          <depth>9</depth>
          <value>16.</value>
          <norm_class_idx>15</norm_class_idx></_>
        <_>
          <depth>9</depth>
          <value>2.</value>
          <norm_class_idx>2</norm_class_idx>
          <splits>
            <_><var>496</var>
              <quality>1.1727272987365723e+01</quality>
              <le>7.2343200445175171e-02</le></_></splits></_>
        <_>
          <depth>10</depth>
          <value>0.</value>
          <norm_class_idx>0</norm_class_idx></_>
        <_>
          <depth>10</depth>
          <value>2.</value>
          <norm_class_idx>2</norm_class_idx></_>
        <_>
          <depth>7</depth>
          <value>49.</value>
          <norm_class_idx>45</norm_class_idx>
          <splits>
            <_><var>868</var>
              <quality>7.1031425476074219e+01</quality>
              <le>1.0841473937034607e-01</le></_></splits></_>
        <_>
          <depth>8</depth>
          <value>49.</value>
          <norm_class_idx>45</norm_class_idx>
          <splits>
            <_><var>969</var>
              <quality>7.7846153259277344e+01</quality>
              <le>7.1700781583786011e-02</le></_></splits></_>
        <_>
          <depth>9</depth>
          <value>49.</value>
          <norm_class_idx>45</norm_class_idx></_>
        <_>
          <depth>9</depth>
          <value>54.</value>
          <norm_class_idx>50</norm_class_idx>
          <splits>
            <_><var>32</var>
              <quality>13.</quality>
              <le>2.0830600988119841e-03</le></_></splits></_>
        <_>
          <depth>10</depth>
          <value>39.</value>
          <norm_class_idx>35</norm_class_idx></_>
        <_>
          <depth>10</depth>
          <value>54.</value>
          <norm_class_idx>50</norm_class_idx></_>
        <_>
          <depth>8</depth>
          <value>47.</value>
          <norm_class_idx>43</norm_class_idx>
          <splits>
            <_><var>1256</var>
              <quality>1.9666666030883789e+01</quality>
              <le>1.2611722946166992e-01</le></_></splits></_>
        <_>
          <depth>9</depth>
          <value>48.</value>
          <norm_class_idx>44</norm_class_idx>
          <splits>
            <_><var>476</var>
              <quality>12.</quality>
              <le>1.6325949132442474e-01</le></_></splits></_>
        <_>
          <depth>10</depth>
          <value>37.</value>
          <norm_class_idx>33</norm_class_idx></_>
        <_>
          <depth>10</depth>
          <value>48.</value>
          <norm_class_idx>44</norm_class_idx></_>
        <_>
          <depth>9</depth>
          <value>47.</value>
          <norm_class_idx>43</norm_class_idx></_>
        <_>
          <depth>6</depth>
          <value>44.</value>
          <norm_class_idx>40</norm_class_idx>
          <splits>
            <_><var>1370</var>
              <quality>4.0454795837402344e+01</quality>
              <le>2.2758185863494873e-02</le></_></splits></_>
        <_>
          <depth>7</depth>
          <value>44.</value>
          <norm_class_idx>40</norm_class_idx>
          <splits>
            <_><var>1140</var>
              <quality>4.8182704925537109e+01</quality>
              <le>8.1608846783638000e-02</le></_></splits></_>
        <_>
          <depth>8</depth>
          <value>44.</value>
          <norm_class_idx>40</norm_class_idx>
          <splits>
            <_><var>167</var>
              <quality>4.8650001525878906e+01</quality>
              <le>6.8118618801236153e-03</le></_></splits></_>
        <_>
          <depth>9</depth>
          <value>44.</value>
          <norm_class_idx>40</norm_class_idx>
          <splits>
            <_><var>1262</var>
              <quality>40.</quality>
              <le>3.8317253347486258e-03</le></_></splits></_>
        <_>
          <depth>10</depth>
          <value>44.</value>
          <norm_class_idx>40</norm_class_idx></_>
        <_>
          <depth>10</depth>
          <value>38.</value>
          <norm_class_idx>34</norm_class_idx></_>
        <_>
          <depth>9</depth>
          <value>43.</value>
          <norm_class_idx>39</norm_class_idx>
          <splits>
            <_><var>845</var>
              <quality>30.</quality>
              <le>1.5140831470489502e-01</le></_></splits></_>
        <_>
          <depth>10</depth>
          <value>44.</value>
          <norm_class_idx>40</norm_class_idx></_>
        <_>
          <depth>10</depth>
          <value>43.</value>
          <norm_class_idx>39</norm_class_idx></_>
        <_>
          <depth>8</depth>
          <value>37.</value>
          <norm_class_idx>33</norm_class_idx>
          <splits>
            <_><var>845</var>
              <quality>2.4138046264648438e+01</quality>
              <le>8.1645086407661438e-02</le></_></splits></_>
        <_>
          <depth>9</depth>
          <value>38.</value>
          <norm_class_idx>34</norm_class_idx>
          <splits>
            <_><var>209</var>
              <quality>1.8470588684082031e+01</quality>
              <le>1.7943775653839111e-01</le></_></splits></_>
        <_>
          <depth>10</depth>
          <value>38.</value>
          <norm_class_idx>34</norm_class_idx></_>
        <_>
          <depth>10</depth>
          <value>42.</value>
          <norm_class_idx>38</norm_class_idx></_>
        <_>
          <depth>9</depth>
          <value>37.</value>
          <norm_class_idx>33</norm_class_idx>
          <splits>
            <_><var>561</var>
              <quality>2.4761905670166016e+01</quality>
              <le>6.2193376943469048e-03</le></_></splits></_>
        <_>
          <depth>10</depth>
          <value>42.</value>
          <norm_class_idx>38</norm_class_idx></_>
        <_>
          <depth>10</depth>
          <value>37.</value>
          <norm_class_idx>33</norm_class_idx></_>
        <_>
          <depth>7</depth>
          <value>50.</value>
          <norm_class_idx>46</norm_class_idx>
          <splits>
            <_><var>456</var>
              <quality>3.3308643341064453e+01</quality>
              <le>1.1304598301649094e-02</le></_></splits></_>
        <_>
          <depth>8</depth>
          <value>50.</value>
          <norm_class_idx>46</norm_class_idx>
          <splits>
            <_><var>456</var>
              <quality>3.6142856597900391e+01</quality>
              <le>7.2371255373582244e-04</le></_></splits></_>
        <_>
          <depth>9</depth>
          <value>11.</value>
          <norm_class_idx>10</norm_class_idx>
          <splits>
            <_><var>1035</var>
              <quality>7.</quality>
              <le>6.9066532887518406e-03</le></_></splits></_>
        <_>
          <depth>10</depth>
          <value>11.</value>
          <norm_class_idx>10</norm_class_idx></_>
        <_>
          <depth>10</depth>
          <value>37.</value>
          <norm_class_idx>33</norm_class_idx></_>
        <_>
          <depth>9</depth>
          <value>50.</value>
          <norm_class_idx>46</norm_class_idx></_>
        <_>
          <depth>8</depth>
          <value>36.</value>
          <norm_class_idx>32</norm_class_idx>
          <splits>
            <_><var>764</var>
              <quality>1.3487142562866211e+01</quality>
              <le>1.1264644563198090e-01</le></_></splits></_>
        <_>
          <depth>9</depth>
          <value>16.</value>
          <norm_class_idx>15</norm_class_idx>
          <splits>
            <_><var>1384</var>
              <quality>1.1560000419616699e+01</quality>
              <le>6.9778934121131897e-03</le></_></splits></_>
        <_>
          <depth>10</depth>
          <value>56.</value>
          <norm_class_idx>52</norm_class_idx></_>
        <_>
          <depth>10</depth>
          <value>16.</value>
          <norm_class_idx>15</norm_class_idx></_>
        <_>
          <depth>9</depth>
          <value>36.</value>
          <norm_class_idx>32</norm_class_idx>
          <splits>
            <_><var>165</var>
              <quality>1.5615385055541992e+01</quality>
              <le>5.5913613177835941e-03</le></_></splits></_>
        <_>
          <depth>10</depth>
          <value>14.</value>
          <norm_class_idx>13</norm_class_idx></_>
        <_>
          <depth>10</depth>
          <value>36.</value>
          <norm_class_idx>32</norm_class_idx></_>
        <_>
          <depth>5</depth>
          <value>38.</value>
          <norm_class_idx>34</norm_class_idx></_>
        <_>
          <depth>4</depth>
          <value>39.</value>
          <norm_class_idx>35</norm_class_idx>
          <splits>
            <_><var>800</var>
              <quality>39.</quality>
              <le>8.8719204068183899e-02</le></_></splits></_>
        <_>
          <depth>5</depth>
          <value>39.</value>
          <norm_class_idx>35</norm_class_idx></_>
        <_>
          <depth>5</depth>
          <value>15.</value>
          <norm_class_idx>14</norm_class_idx></_>
        <_>
          <depth>3</depth>
          <value>35.</value>
          <norm_class_idx>31</norm_class_idx>
          <splits>
            <_><var>1600</var>
              <quality>5.3719577789306641e+01</quality>
              <le>7.5502216815948486e-01</le></_></splits></_>
        <_>
          <depth>4</depth>
          <value>35.</value>
          <norm_class_idx>31</norm_class_idx>
          <splits>
            <_><var>67</var>
              <quality>54.</quality>
              <le>3.5532172769308090e-02</le></_></splits></_>
        <_>
          <depth>5</depth>
          <value>35.</value>
          <norm_class_idx>31</norm_class_idx></_>
        <_>
          <depth>5</depth>
          <value>37.</value>
          <norm_class_idx>33</norm_class_idx></_>
        <_>
          <depth>4</depth>
          <value>49.</value>
          <norm_class_idx>45</norm_class_idx>
          <splits>
            <_><var>1194</var>
              <quality>7.</quality>
              <le>2.8729864954948425e-01</le></_></splits></_>
        <_>
          <depth>5</depth>
          <value>35.</value>
          <norm_class_idx>31</norm_class_idx></_>
        <_>
          <depth>5</depth>
          <value>49.</value>
          <norm_class_idx>45</norm_class_idx></_>
        <_>
          <depth>1</depth>
          <value>54.</value>
          <norm_class_idx>50</norm_class_idx>
          <splits>
            <_><var>930</var>
              <quality>2.0250402832031250e+02</quality>
              <le>5.5689118802547455e-02</le></_></splits></_>
        <_>
          <depth>2</depth>
          <value>54.</value>
          <norm_class_idx>50</norm_class_idx>
          <splits>
            <_><var>695</var>
              <quality>1.6862689208984375e+02</quality>
              <le>2.1814882755279541e-01</le></_></splits></_>
        <_>
          <depth>3</depth>
          <value>11.</value>
          <norm_class_idx>10</norm_class_idx>
          <splits>
            <_><var>541</var>
              <quality>1.0411604309082031e+02</quality>
              <le>4.9022674560546875e-02</le></_></splits></_>
        <_>
          <depth>4</depth>
          <value>4.</value>
          <norm_class_idx>4</norm_class_idx>
          <splits>
            <_><var>414</var>
              <quality>9.4925544738769531e+01</quality>
              <le>3.0399447679519653e-01</le></_></splits></_>
        <_>
          <depth>5</depth>
          <value>4.</value>
          <norm_class_idx>4</norm_class_idx>
          <splits>
            <_><var>342</var>
              <quality>8.4692932128906250e+01</quality>
              <le>2.9142555594444275e-01</le></_></splits></_>
        <_>
          <depth>6</depth>
          <value>2.</value>
          <norm_class_idx>2</norm_class_idx>
          <splits>
            <_><var>947</var>
              <quality>5.4495910644531250e+01</quality>
              <le>1.7677339911460876e-01</le></_></splits></_>
        <_>
          <depth>7</depth>
          <value>11.</value>
          <norm_class_idx>10</norm_class_idx>
          <splits>
            <_><var>707</var>
              <quality>3.4402019500732422e+01</quality>
              <le>1.7983575165271759e-01</le></_></splits></_>
        <_>
          <depth>8</depth>
          <value>11.</value>
          <norm_class_idx>10</norm_class_idx>
          <splits>
            <_><var>1344</var>
              <quality>3.4138275146484375e+01</quality>
              <le>7.9289609566330910e-03</le></_></splits></_>
        <_>
          <depth>9</depth>
          <value>11.</value>
          <norm_class_idx>10</norm_class_idx>
          <splits>
            <_><var>639</var>
              <quality>3.0244117736816406e+01</quality>
              <le>1.4650015532970428e-01</le></_></splits></_>
        <_>
          <depth>10</depth>
          <value>11.</value>
          <norm_class_idx>10</norm_class_idx></_>
        <_>
          <depth>10</depth>
          <value>4.</value>
          <norm_class_idx>4</norm_class_idx></_>
        <_>
          <depth>9</depth>
          <value>55.</value>
          <norm_class_idx>51</norm_class_idx>
          <splits>
            <_><var>1125</var>
              <quality>3.8030769348144531e+01</quality>
              <le>3.3031436614692211e-03</le></_></splits></_>
        <_>
          <depth>10</depth>
          <value>55.</value>
          <norm_class_idx>51</norm_class_idx></_>
        <_>
          <depth>10</depth>
          <value>5.</value>
          <norm_class_idx>5</norm_class_idx></_>
        <_>
          <depth>8</depth>
          <value>12.</value>
          <norm_class_idx>11</norm_class_idx>
          <splits>
            <_><var>438</var>
              <quality>2.5239492416381836e+01</quality>
              <le>3.1575575470924377e-01</le></_></splits></_>
        <_>
          <depth>9</depth>
          <value>17.</value>
          <norm_class_idx>16</norm_class_idx>
          <splits>
            <_><var>1638</var>
              <quality>1.6500000000000000e+01</quality>
              <le>2.8310954570770264e-01</le></_></splits></_>
        <_>
          <depth>10</depth>
          <value>28.</value>
          <norm_class_idx>25</norm_class_idx></_>
        <_>
          <depth>10</depth>
          <value>17.</value>
          <norm_class_idx>16</norm_class_idx></_>
        <_>
          <depth>9</depth>
          <value>12.</value>
          <norm_class_idx>11</norm_class_idx>
          <splits>
            <_><var>1087</var>
              <quality>2.7692308425903320e+01</quality>
              <le>7.5503215193748474e-02</le></_></splits></_>
        <_>
          <depth>10</depth>
          <value>12.</value>
          <norm_class_idx>11</norm_class_idx></_>
        <_>
          <depth>10</depth>
          <value>8.</value>
          <norm_class_idx>8</norm_class_idx></_>
        <_>
          <depth>7</depth>
          <value>2.</value>
          <norm_class_idx>2</norm_class_idx>
          <splits>
            <_><var>215</var>
              <quality>4.7752380371093750e+01</quality>
              <le>6.4461924135684967e-02</le></_></splits></_>
        <_>
          <depth>8</depth>
          <value>7.</value>
          <norm_class_idx>7</norm_class_idx>
          <splits>
            <_><var>1131</var>
              <quality>21.</quality>
              <le>5.6537460535764694e-02</le></_></splits></_>
        <_>
          <depth>9</depth>
          <value>7.</value>
          <norm_class_idx>7</norm_class_idx></_>
        <_>
          <depth>9</depth>
          <value>15.</value>
          <norm_class_idx>14</norm_class_idx></_>
        <_>
          <depth>8</depth>
          <value>2.</value>
          <norm_class_idx>2</norm_class_idx>
          <splits>
            <_><var>891</var>
              <quality>5.3315067291259766e+01</quality>
              <le>3.0519253015518188e-01</le></_></splits></_>
        <_>
          <depth>9</depth>
          <value>5.</value>
          <norm_class_idx>5</norm_class_idx>
          <splits>
            <_><var>1604</var>
              <quality>1.9399999618530273e+01</quality>
              <le>2.3074213415384293e-02</le></_></splits></_>
        <_>
          <depth>10</depth>
          <value>5.</value>
          <norm_class_idx>5</norm_class_idx></_>
        <_>
          <depth>10</depth>
          <value>56.</value>
          <norm_class_idx>52</norm_class_idx></_>
        <_>
          <depth>9</depth>
          <value>2.</value>
          <norm_class_idx>2</norm_class_idx>
          <splits>
            <_><var>1349</var>
              <quality>5.0506492614746094e+01</quality>
              <le>2.1084365248680115e-01</le></_></splits></_>
        <_>
          <depth>10</depth>
          <value>15.</value>
          <norm_class_idx>14</norm_class_idx></_>
        <_>
          <depth>10</depth>
          <value>2.</value>
          <norm_class_idx>2</norm_class_idx></_>
        <_>
          <depth>6</depth>
          <value>4.</value>
          <norm_class_idx>4</norm_class_idx>
          <splits>
            <_><var>1569</var>
              <quality>7.6817047119140625e+01</quality>
              <le>3.1194086186587811e-03</le></_></splits></_>
        <_>
          <depth>7</depth>
          <value>7.</value>
          <norm_class_idx>7</norm_class_idx>
          <splits>
            <_><var>968</var>
              <quality>1.6827068328857422e+01</quality>
              <le>7.0927850902080536e-02</le></_></splits></_>
        <_>
          <depth>8</depth>
          <value>28.</value>
          <norm_class_idx>25</norm_class_idx>
          <splits>
            <_><var>628</var>
              <quality>7.</quality>
              <le>7.7860653400421143e-02</le></_></splits></_>
        <_>
          <depth>9</depth>
          <value>28.</value>
          <norm_class_idx>25</norm_class_idx></_>
        <_>
          <depth>9</depth>
          <value>13.</value>
          <norm_class_idx>12</norm_class_idx></_>
        <_>
          <depth>8</depth>
          <value>7.</value>
          <norm_class_idx>7</norm_class_idx>
          <splits>
            <_><var>1223</var>
              <quality>19.</quality>
              <le>2.6851665973663330e-01</le></_></splits></_>
        <_>
          <depth>9</depth>
          <value>7.</value>
          <norm_class_idx>7</norm_class_idx></_>
        <_>
          <depth>9</depth>
          <value>6.</value>
          <norm_class_idx>6</norm_class_idx></_>
        <_>
          <depth>7</depth>
          <value>4.</value>
          <norm_class_idx>4</norm_class_idx>
          <splits>
            <_><var>1410</var>
              <quality>74.</quality>
              <le>1.5611262619495392e-01</le></_></splits></_>
        <_>
          <depth>8</depth>
          <value>4.</value>
          <norm_class_idx>4</norm_class_idx></_>
        <_>
          <depth>8</depth>
          <value>3.</value>
          <norm_class_idx>3</norm_class_idx></_>
        <_>
          <depth>5</depth>
          <value>13.</value>
          <norm_class_idx>12</norm_class_idx>
          <splits>
            <_><var>594</var>
              <quality>8.9199516296386719e+01</quality>
              <le>7.8088521957397461e-02</le></_></splits></_>
        <_>
          <depth>6</depth>
          <value>13.</value>
          <norm_class_idx>12</norm_class_idx>
          <splits>
            <_><var>915</var>
              <quality>1.0506557464599609e+02</quality>
              <le>2.6322863996028900e-02</le></_></splits></_>
        <_>
          <depth>7</depth>
          <value>24.</value>
          <norm_class_idx>21</norm_class_idx>
          <splits>
            <_><var>556</var>
              <quality>5.7666667938232422e+01</quality>
              <le>6.6898554563522339e-02</le></_></splits></_>
        <_>
          <depth>8</depth>
          <value>24.</value>
          <norm_class_idx>21</norm_class_idx></_>
        <_>
          <depth>8</depth>
          <value>13.</value>
          <norm_class_idx>12</norm_class_idx>
          <splits>
            <_><var>477</var>
              <quality>12.</quality>
              <le>1.4405859634280205e-02</le></_></splits></_>
        <_>
          <depth>9</depth>
          <value>5.</value>
          <norm_class_idx>5</norm_class_idx></_>
        <_>
          <depth>9</depth>
          <value>13.</value>
          <norm_class_idx>12</norm_class_idx></_>
        <_>
          <depth>7</depth>
          <value>13.</value>
          <norm_class_idx>12</norm_class_idx></_>
        <_>
          <depth>6</depth>
          <value>6.</value>
          <norm_class_idx>6</norm_class_idx>
          <splits>
            <_><var>477</var>
              <quality>4.3273811340332031e+01</quality>
              <le>3.7439692765474319e-02</le></_></splits></_>
        <_>
          <depth>7</depth>
          <value>6.</value>
          <norm_class_idx>6</norm_class_idx>
          <splits>
            <_><var>1148</var>
              <quality>42.</quality>
              <le>7.1589747676625848e-04</le></_></splits></_>
        <_>
          <depth>8</depth>
          <value>43.</value>
          <norm_class_idx>39</norm_class_idx></_>
        <_>
          <depth>8</depth>
          <value>6.</value>
          <norm_class_idx>6</norm_class_idx></_>
        <_>
          <depth>7</depth>
          <value>16.</value>
          <norm_class_idx>15</norm_class_idx>
          <splits>
            <_><var>871</var>
              <quality>1.0777777671813965e+01</quality>
              <le>7.0702761411666870e-02</le></_></splits></_>
        <_>
          <depth>8</depth>
          <value>37.</value>
          <norm_class_idx>33</norm_class_idx>
          <splits>
            <_><var>871</var>
              <quality>1.0166666984558105e+01</quality>
              <le>3.8628645241260529e-02</le></_></splits></_>
        <_>
          <depth>9</depth>
          <value>11.</value>
          <norm_class_idx>10</norm_class_idx>
          <splits>
            <_><var>368</var>
              <quality>8.5714282989501953e+00</quality>
              <le>2.3935562372207642e-01</le></_></splits></_>
        <_>
          <depth>10</depth>
          <value>54.</value>
          <norm_class_idx>50</norm_class_idx></_>
        <_>
          <depth>10</depth>
          <value>11.</value>
          <norm_class_idx>10</norm_class_idx></_>
        <_>
          <depth>9</depth>
          <value>37.</value>
          <norm_class_idx>33</norm_class_idx></_>
        <_>
          <depth>8</depth>
          <value>16.</value>
          <norm_class_idx>15</norm_class_idx></_>
        <_>
          <depth>4</depth>
          <value>11.</value>
          <norm_class_idx>10</norm_class_idx>
          <splits>
            <_><var>888</var>
              <quality>1.2061161804199219e+02</quality>
              <le>2.5064563751220703e-01</le></_></splits></_>
        <_>
          <depth>5</depth>
          <value>10.</value>
          <norm_class_idx>9</norm_class_idx>
          <splits>
            <_><var>673</var>
              <quality>6.0132453918457031e+01</quality>
              <le>7.6889447867870331e-02</le></_></splits></_>
        <_>
          <depth>6</depth>
          <value>10.</value>
          <norm_class_idx>9</norm_class_idx>
          <splits>
            <_><var>1579</var>
              <quality>4.6961002349853516e+01</quality>
              <le>9.1638371348381042e-02</le></_></splits></_>
        <_>
          <depth>7</depth>
          <value>10.</value>
          <norm_class_idx>9</norm_class_idx>
          <splits>
            <_><var>32</var>
              <quality>4.5255226135253906e+01</quality>
              <le>2.0900294184684753e-02</le></_></splits></_>
        <_>
          <depth>8</depth>
          <value>55.</value>
          <norm_class_idx>51</norm_class_idx>
          <splits>
            <_><var>1699</var>
              <quality>2.6109781265258789e+01</quality>
              <le>2.1183922886848450e-01</le></_></splits></_>
        <_>
          <depth>9</depth>
          <value>55.</value>
          <norm_class_idx>51</norm_class_idx>
          <splits>
            <_><var>694</var>
              <quality>2.1997768402099609e+01</quality>
              <le>3.5606421530246735e-02</le></_></splits></_>
        <_>
          <depth>10</depth>
          <value>11.</value>
          <norm_class_idx>10</norm_class_idx></_>
        <_>
          <depth>10</depth>
          <value>55.</value>
          <norm_class_idx>51</norm_class_idx></_>
        <_>
          <depth>9</depth>
          <value>41.</value>
          <norm_class_idx>37</norm_class_idx>
          <splits>
            <_><var>1538</var>
              <quality>25.</quality>
              <le>4.8675503581762314e-02</le></_></splits></_>
        <_>
          <depth>10</depth>
          <value>41.</value>
          <norm_class_idx>37</norm_class_idx></_>
        <_>
          <depth>10</depth>
          <value>38.</value>
          <norm_class_idx>34</norm_class_idx></_>
        <_>
          <depth>8</depth>
          <value>10.</value>
          <norm_class_idx>9</norm_class_idx>
          <splits>
            <_><var>406</var>
              <quality>6.5994445800781250e+01</quality>
              <le>3.0711326748132706e-02</le></_></splits></_>
        <_>
          <depth>9</depth>
          <value>13.</value>
          <norm_class_idx>12</norm_class_idx>
          <splits>
            <_><var>1624</var>
              <quality>2.2266233444213867e+01</quality>
              <le>2.8802411630749702e-02</le></_></splits></_>
        <_>
          <depth>10</depth>
          <value>13.</value>
          <norm_class_idx>12</norm_class_idx></_>
        <_>
          <depth>10</depth>
          <value>24.</value>
          <norm_class_idx>21</norm_class_idx></_>
        <_>
          <depth>9</depth>
          <value>10.</value>
          <norm_class_idx>9</norm_class_idx>
          <splits>
            <_><var>1638</var>
              <quality>6.8500000000000000e+01</quality>
              <le>3.5410439968109131e-01</le></_></splits></_>
        <_>
          <depth>10</depth>
          <value>23.</value>
          <norm_class_idx>20</norm_class_idx></_>
        <_>
          <depth>10</depth>
          <value>10.</value>
          <norm_class_idx>9</norm_class_idx></_>
        <_>
          <depth>7</depth>
          <value>54.</value>
          <norm_class_idx>50</norm_class_idx>
          <splits>
            <_><var>241</var>
              <quality>3.2843135833740234e+01</quality>
              <le>3.8397389650344849e-01</le></_></splits></_>
        <_>
          <depth>8</depth>
          <value>21.</value>
          <norm_class_idx>18</norm_class_idx>
          <splits>
            <_><var>1631</var>
              <quality>2.8735294342041016e+01</quality>
              <le>6.8775527179241180e-03</le></_></splits></_>
        <_>
          <depth>9</depth>
          <value>52.</value>
          <norm_class_idx>48</norm_class_idx>
          <splits>
            <_><var>1538</var>
              <quality>1.9647058486938477e+01</quality>
              <le>2.3618377745151520e-02</le></_></splits></_>
        <_>
          <depth>10</depth>
          <value>11.</value>
          <norm_class_idx>10</norm_class_idx></_>
        <_>
          <depth>10</depth>
          <value>52.</value>
          <norm_class_idx>48</norm_class_idx></_>
        <_>
          <depth>9</depth>
          <value>21.</value>
          <norm_class_idx>18</norm_class_idx>
          <splits>
            <_><var>1354</var>
              <quality>3.3155555725097656e+01</quality>
              <le>2.7033440768718719e-02</le></_></splits></_>
        <_>
          <depth>10</depth>
          <value>21.</value>
          <norm_class_idx>18</norm_class_idx></_>
        <_>
          <depth>10</depth>
          <value>43.</value>
          <norm_class_idx>39</norm_class_idx></_>
        <_>
          <depth>8</depth>
          <value>54.</value>
          <norm_class_idx>50</norm_class_idx></_>
        <_>
          <depth>6</depth>
          <value>3.</value>
